tree
version=v4
num_class=1
num_tree_per_iteration=1
label_index=0
max_feature_idx=17
objective=binary sigmoid:1
feature_names=HOME_TEAM_ID VISITOR_TEAM_ID SEASON PLAYOFF HOME_TEAM_WINS_AVG_LAST_5_HOME HOME_PTS_home_AVG_LAST_5_HOME HOME_FG_PCT_home_AVG_LAST_5_HOME HOME_FT_PCT_home_AVG_LAST_5_HOME HOME_FG3_PCT_home_AVG_LAST_5_HOME HOME_AST_home_AVG_LAST_5_HOME HOME_REB_home_AVG_LAST_5_HOME VISITOR_TEAM_WINS_AVG_LAST_5_VISITOR VISITOR_PTS_away_AVG_LAST_5_VISITOR VISITOR_FG_PCT_away_AVG_LAST_5_VISITOR VISITOR_FT_PCT_away_AVG_LAST_5_VISITOR VISITOR_FG3_PCT_away_AVG_LAST_5_VISITOR VISITOR_AST_away_AVG_LAST_5_VISITOR VISITOR_REB_away_AVG_LAST_5_VISITOR
feature_infos=[1610612737:1610612766] [1610612737:1610612766] [2003:2022] [0:1] [0:1] [73.599999999999994:135.80000000000001] [0.34653320312500002:56.681249999999999] [0.51020507812500004:92.349999999999994] [0.150634765625:49.456249999999997] [12.6:38] [30.800000000000001:59.600000000000001] [0:1] [73:134] [0.34672851562500001:53.700000000000003] [0.53964843750000002:86] [0.10660400390624999:41.981250000000003] [10.199999999999999:34] [29.399999999999999:56.399999999999999]
tree_sizes=3321 3419 3414 3414 3418 3416 3399 3416 3421 3411 3416 3413 3411 3390 3425 3422 3422 3413 3384 3406 3395 3418 3406 3418 3432 3403 3415 3392 3398 3403 3405 3374 3381 3397 3357 3376 3383 3369 3386 3380 3417

Tree=0
num_leaves=31
num_cat=0
split_feature=4 4 4 7 8 2 9 14 1 12 14 1 5 1 1 2 16 2 6 12 0 15 10 16 0 5 6 4 1 8
split_gain=475.634 89.8914 78.0587 33.0274 25.442 21.0084 19.7986 18.6102 17.9211 13.1647 12.946 12.1868 16.2889 11.8048 11.5526 14.0515 12.337 11.043 10.7991 12.2099 10.7236 12.8156 10.647 13.2533 10.9676 10.5173 10.6931 10.4208 9.835 9.78129
threshold=0.50000000000000011 0.3000000000000001 0.70000000000000007 68.50937500000002 0.4719970703125001 2017.5000000000002 20.900000000000002 0.7340332031250002 1610612763.5000002 106.30000000000003 0.74506835937500016 1610612742.5000002 109.10000000000001 1610612737.5000002 1610612748.5000002 2020.5000000000002 13.700000000000001 2013.5000000000002 0.4895751953125001 102.50000000000001 1610612745.5000002 0.29879150390625003 41.100000000000009 25.700000000000006 1610612749.5000002 105.30000000000003 0.4951904296875001 1.0000000180025095e-35 1610612744.5000002 0.42730712890625006
decision_type=8 10 10 10 10 2 10 8 2 10 10 2 8 2 2 2 10 2 10 10 2 10 8 10 2 10 10 10 2 10
left_child=1 8 4 6 11 10 18 -5 27 -10 -3 12 13 17 -8 16 -16 -2 19 -4 21 -12 -14 24 -24 26 -22 -1 -6 -15
right_child=2 5 3 7 28 -7 14 -9 9 -11 20 -13 22 29 15 -17 -18 -19 -20 -21 25 -23 23 -25 -26 -27 -28 -29 -30 -31
leaf_value=0.23331563863513516 0.38943156993707057 0.29422974079820491 0.31735816294143515 0.36721334580980991 0.23123283165885294 0.28312875154115619 0.36049033665925134 0.2181340180456201 0.28129492990922222 0.37524402922930167 0.26337886130262206 0.34110008944046205 0.26115327959644796 0.28625922144780058 0.25250530496674312 0.32292452695148294 0.38307927681456977 0.25935161821525948 0.38871090538459518 0.35941817366142487 0.30371024257583168 0.35699466833244931 0.44334628676913701 0.23107336784095273 0.34959847467297528 0.34946651874785128 0.4281486517562666 0.2620439885938895 0.30299033243290202 0.39938984375309439
leaf_weight=166.75642192363739 25.561203360557556 231.99835050106049 151.41969990730286 12.902321696281431 27.265283584594727 310.87292087078094 578.4135160446167 23.857123136520386 56.964967489242554 20.205522656440735 16.553922176361084 1031.2119755744934 9.2507212162017805 157.01882064342499 7.3032009601593009 42.60200560092926 786.06786334514618 8.7638411521911603 46.253606081008911 126.83225667476654 315.98516154289246 125.37161648273468 23.370243072509766 5.5991207361221305 26.778403520584106 68.893529057502747 7.0597609281539908 519.98790836334229 63.781288385391235 8.0335210561752302
leaf_count=685 105 953 622 53 112 1277 2376 98 234 83 68 4236 38 645 30 175 3229 36 190 521 1298 515 96 23 110 283 29 2136 262 33
internal_value=0.326854 0.286439 0.350378 0.364261 0.332599 0.305053 0.366244 0.27046 0.260202 0.305894 0.313952 0.336189 0.317035 0.302862 0.371355 0.378873 0.381877 0.35622 0.343968 0.33653 0.322523 0.346076 0.360508 0.376995 0.393287 0.313995 0.30643 0.255068 0.281501 0.291766
internal_weight=0 1840.65 3162.29 1775.65 1386.63 1076.74 1738.89 36.7594 763.915 77.1705 765.862 1295.59 264.376 199.377 1414.39 835.973 793.371 34.325 324.506 278.252 533.864 141.926 64.9985 55.7478 50.1486 391.938 323.045 686.744 91.0466 165.052
internal_count=20551 7561 12990 7294 5696 4423 7143 151 3138 317 3146 5322 1086 819 5810 3434 3259 141 1333 1143 2193 583 267 229 206 1610 1327 2821 374 678
is_linear=0
shrinkage=1


Tree=1
num_leaves=31
num_cat=0
split_feature=4 4 4 7 8 2 9 14 1 14 8 9 12 15 0 14 0 0 12 7 13 15 16 4 0 2 0 7 0 2
split_gain=384.332 71.3848 64.0083 26.8361 20.506 17.3914 16.3343 14.8043 14.1693 14.1432 11.9409 13.4697 10.6391 10.5602 10.347 13.3398 13.0056 12.5217 10.6662 10.4975 10.2911 10.7046 10.3541 10.184 11.487 11.2134 10.0473 9.75225 9.64642 10.8673
threshold=0.50000000000000011 0.3000000000000001 0.70000000000000007 68.50937500000002 0.4719970703125001 2016.5000000000002 20.900000000000002 0.7340332031250002 1610612763.5000002 0.68823242187500011 0.35659790039062506 26.700000000000006 106.30000000000003 0.39862060546875006 1610612748.5000002 32.829833984375007 1610612752.5000002 1610612763.5000002 113.30000000000003 0.69836425781250011 0.4331787109375001 0.39958496093750001 22.300000000000001 0.90000000000000013 1610612762.5000002 2003.5000000000002 1610612745.5000002 0.79692382812500007 1610612758.5000002 2012.5000000000002
decision_type=8 10 10 10 10 2 10 8 2 10 10 10 10 10 2 10 2 2 10 8 10 10 10 10 2 2 2 10 2 2
left_child=1 8 4 6 14 9 -4 -5 -1 13 -7 -12 -10 -3 -2 16 19 28 27 -16 -21 22 -22 25 -25 -8 -11 -17 29 -18
right_child=2 5 3 7 -6 10 23 -9 12 26 11 -13 -14 -15 15 18 17 -19 -20 20 21 -23 -24 24 -26 -27 -28 -29 -30 -31
leaf_value=-0.063903414180303472 0.019066243662741782 -0.077174785861737941 0.01545734330839329 0.036590242239893767 -0.040525775412681014 -0.015486756780720153 0.082844568322229944 -0.096333627204728961 -0.040706016449809847 0.014708185294184923 -0.065095642481919888 -0.0059842391517516309 0.043939019486891634 0.051894603699576214 -0.11505795836286431 -0.13116997789141485 0.022951445334081666 -0.018242365320297979 0.024531062329012962 0.032135542238174351 -0.086688816172697122 0.011331935855016292 -0.0092074983770933042 0.056956236719315156 0.0013359290618400329 0.031766347193343446 -0.013595969362584698 0.027959788390424442 0.034715530730416569 -0.019480557009266541
leaf_weight=693.87728974223137 535.36253342032433 46.486621201038361 323.53189590573311 12.813174203038214 91.648457258939743 152.96735937893391 45.186230808496475 24.210853487253189 57.357861220836639 169.44536189734936 171.63824106752872 49.714859426021576 20.036364778876305 7.3399928212165824 11.174560412764547 18.482895523309711 144.64466051757336 117.43382784724236 10.208379641175268 35.762576267123222 39.872566431760788 40.585108891129494 30.394469708204269 437.4405814409256 40.575337290763855 880.26450330018997 482.64460842311382 4.8649554550647727 201.01613064110279 103.58055646717548
leaf_count=2821 2204 190 1333 53 374 625 187 98 234 697 701 203 83 30 46 76 595 483 42 147 164 167 125 1811 168 3644 1977 20 827 426
internal_value=0 -0.0361389 0.0212741 0.0339071 0.00518432 -0.0195474 0.035713 -0.0503317 -0.0593767 -0.0103078 -0.036972 -0.0518195 -0.0187925 -0.0595744 0.00842332 0.000906605 0.00376165 0.0108318 -0.0607326 -0.0216297 -0.0145088 -0.029557 -0.0531738 0.0403824 0.052235 0.0342603 -0.00624114 -0.0980124 0.0184319 0.00524522
internal_weight=0 1851.51 3149.05 1764.02 1385.03 1080.24 1727 37.024 771.272 705.917 374.32 221.353 77.3942 53.8266 1293.38 758.021 724.464 566.675 33.5562 157.789 146.615 110.852 70.267 1403.47 478.016 925.451 652.09 23.3479 449.241 248.225
internal_count=20551 7561 12990 7294 5696 4423 7143 151 3138 2894 1529 904 317 220 5322 3118 2980 2331 138 649 603 456 289 5810 1979 3831 2674 96 1848 1021
is_linear=0
shrinkage=0.1


Tree=2
num_leaves=31
num_cat=0
split_feature=4 4 4 7 8 6 2 11 9 14 17 14 6 1 5 8 17 1 5 14 8 9 13 14 2 5 10 16 12 0
split_gain=310.961 57.0739 52.4835 21.837 16.553 14.4325 13.9543 13.6837 12.9555 11.8696 11.6289 11.332 10.9264 13.5995 10.4043 16.7879 10.1138 9.66508 13.1523 9.69653 9.53497 10.7305 9.47668 8.99922 9.26641 8.82591 8.77429 9.65315 9.23495 8.47735
threshold=0.50000000000000011 0.3000000000000001 0.70000000000000007 68.50937500000002 0.4719970703125001 0.49240722656250008 2016.5000000000002 0.50000000000000011 23.100000000000005 0.7340332031250002 46.300000000000004 0.68823242187500011 0.42863769531250001 1610612749.5000002 112.10000000000001 0.34561767578125008 41.500000000000007 1610612742.5000002 109.10000000000001 29.276562500000001 0.35659790039062506 26.700000000000006 0.43679199218750003 16.426953125000001 2004.5000000000002 99.300000000000026 41.300000000000004 25.700000000000006 97.700000000000003 1610612749.5000002
decision_type=8 10 10 10 10 10 2 10 10 8 10 10 8 2 10 10 10 2 8 8 10 10 8 10 2 10 8 10 10 2
left_child=1 10 4 5 17 7 11 16 25 -5 -1 -3 -12 -14 -7 -16 -4 18 19 23 -8 -22 -23 24 -2 -9 28 29 -20 -28
right_child=2 6 3 9 -6 14 20 8 -10 -11 12 -13 13 -15 15 -17 -18 -19 26 -21 21 22 -24 -25 -26 -27 27 -29 -30 -31
leaf_value=-0.057450908011897062 0.039828348762938372 -0.053186380756992405 0.019140072148397014 0.033174042854340113 -0.036270984658245783 0.060856047970773111 -0.013906027520074816 0.023494943895972255 0.031208502431635449 -0.085952380419237862 -0.080423704012173358 -0.0056106894590556601 -0.05143752170846369 0.040042394331514942 -0.08363108000686309 0.037881421387103612 0.049923014562684567 0.011990854334431127 0.051212244813045128 -0.093430855656984266 -0.058074643704219546 -0.070427054646299142 0.023899730996299499 0.072516905978612003 -0.029830560715331352 -0.0079156733828508966 0.1055401282338414 -0.079923484977714426 -0.13306393369472497 0.021332419143190385
leaf_weight=688.07002593576908 21.892376497387886 54.224680811166763 159.4977620691061 12.724219411611555 92.13174444437027 255.60496601462364 153.30123949050903 150.79955452680588 375.89318776130676 24.409358322620392 21.751913368701935 652.6522037088871 28.231882229447365 38.292303472757339 11.992948010563849 218.82987101376057 322.62628881633282 1026.9813900142908 4.8835023343563062 17.40838323533535 173.06647142767906 15.445434227585791 34.311429232358932 10.963532641530035 149.54145522415638 219.90430395305157 22.539941653609276 5.4190238565206519 6.1373175233602524 25.458234131336212
leaf_count=2781 90 220 664 53 374 1067 625 625 1568 98 88 2674 114 155 50 913 1343 4236 20 71 701 63 140 45 613 913 95 22 25 105
internal_value=0 -0.0323741 0.0192411 0.0307362 0.00468032 0.0323788 -0.0175403 0.0266071 0.0181268 -0.0451324 -0.0530672 -0.00926023 -0.0188979 0.00121967 0.0469581 0.031568 0.0397393 0.00760229 -0.00945385 -0.0221235 -0.0331016 -0.0463081 -0.00538102 -0.0153178 -0.020935 0.00486193 0.0298316 0.0465926 -0.0514082 0.0608764
internal_weight=0 1859.35 3135.64 1752.28 1383.36 1715.15 1083 1228.72 746.597 37.1336 776.346 706.877 88.2761 66.5242 486.428 230.823 482.124 1291.23 264.244 199.806 376.125 222.823 49.7569 182.397 171.434 370.704 64.438 53.4172 11.0208 47.9982
internal_count=20551 7561 12990 7294 5696 7143 4423 5113 3106 151 3138 2894 357 269 2030 963 2007 5322 1086 819 1529 904 203 748 703 1538 267 222 45 200
is_linear=0
shrinkage=0.1


Tree=3
num_leaves=31
num_cat=0
split_feature=4 4 4 2 1 6 9 8 11 2 1 17 1 1 1 1 12 2 0 7 12 0 14 10 6 1 10 12 13 10
split_gain=251.845 45.8316 43.0453 19.3542 16.4945 13.7977 13.5622 13.4232 11.8659 11.3417 11.0817 10.9653 9.46458 9.09154 16.7232 13.9841 14.7022 10.3734 9.73811 9.02616 8.51024 8.42586 8.39165 8.2752 9.57107 8.24329 10.4924 10.9338 8.78208 8.13476
threshold=0.50000000000000011 0.3000000000000001 0.70000000000000007 2020.5000000000002 1610612765.5000002 0.50046386718750013 27.700000000000006 35.040625000000013 0.50000000000000011 2017.5000000000002 1610612763.5000002 35.100000000000009 1610612763.5000002 1610612748.5000002 1610612755.5000002 1610612740.5000002 84.300000000000026 2003.5000000000002 1610612746.5000002 0.77690429687500007 106.30000000000003 1610612756.5000002 0.7325683593750002 50.70000000000001 0.51638183593750009 1610612743.5000002 41.70000000000001 97.90000000000002 0.44279785156250001 39.900000000000006
decision_type=8 10 10 2 2 10 10 10 8 2 2 8 2 2 2 2 10 2 2 10 10 2 8 10 10 2 8 8 10 10
left_child=1 10 7 4 5 6 8 25 29 13 -1 -10 -11 15 17 18 -17 -15 19 -3 -12 -9 -5 24 -24 26 27 28 -2 -4
right_child=2 9 3 22 -6 -7 -8 21 11 12 20 -13 -14 14 -16 16 -18 -19 -20 -21 -22 -23 23 -25 -26 -27 -28 -29 -30 -31
leaf_value=-0.05150710522246979 -0.035967137451636849 0.10246944695630017 -0.010128074755797981 0.026766544444248842 0.090300662442066332 0.048244038296722455 0.061592698764626287 -0.027591343150072129 0.089969125665855784 -0.037296934720998036 -0.031202632186464276 0.011852337641471835 0.022076133012463306 -0.06084423073408575 -0.016486128673183238 -0.20358792322177927 -0.033149762501542064 0.028678507816735616 -0.010181623362701533 -0.022197706594190417 0.044380955489949685 -0.13493022607177516 -0.0055647612106963229 0.089953783727466083 -0.081885872110725955 0.010479702292106761 0.0045640600820640725 -0.060367516334623589 0.056461020782236117 0.038283181832473479
leaf_weight=701.80964502692223 22.741261065006256 17.264172524213794 37.851995438337326 34.477047309279442 44.918227553367615 298.1493144184351 91.031324967741966 36.354721739888191 18.424873560667038 285.82860112190247 57.965550184249878 726.77639955282211 29.632077157497406 13.955001309514044 266.60530905425549 5.1913060247898093 201.86395332217216 178.58192645013332 77.457240983843803 8.7516778707504255 20.048993572592735 9.1546025276184064 33.61878727376461 5.0511143505573264 32.139583885669708 1012.9203567355871 218.93946000933647 62.642372041940689 18.760214000940323 418.12731477618217
leaf_count=2821 93 71 159 144 189 1258 383 147 77 1157 234 3037 120 57 1090 21 825 730 316 36 83 37 140 21 130 4184 902 256 77 1756
internal_value=0 -0.0290403 0.017404 0.027865 0.0305406 0.0288528 0.0243787 0.00422419 0.0215584 -0.0157509 -0.0475326 0.0137838 -0.0317199 -0.00920575 -0.00026769 -0.0224214 -0.037423 0.0221899 0.00759756 0.0605317 -0.0117784 -0.0491835 -0.0136927 -0.0333923 -0.0428669 0.00604345 -0.00786493 -0.0339942 0.00581384 0.0342644
internal_weight=0 1864.96 3122.08 1740.57 1635.28 1590.36 1292.21 1381.51 1201.18 1085.13 779.824 745.201 315.461 769.671 459.142 310.528 207.055 192.537 103.473 26.0159 78.0145 45.5093 105.287 70.8095 65.7584 1336 323.083 104.144 41.5015 455.979
internal_count=20551 7561 12990 7294 6859 6670 5412 5696 5029 4423 3138 3114 1277 3146 1877 1269 846 787 423 107 317 184 435 291 270 5512 1328 426 170 1915
is_linear=0
shrinkage=0.1


Tree=4
num_leaves=31
num_cat=0
split_feature=4 4 4 2 1 1 1 2 13 4 6 9 2 12 12 12 1 9 7 7 2 6 10 13 13 9 9 14 10 17
split_gain=204.087 36.9729 35.3205 15.8194 14.8972 15.0671 14.2533 11.9208 12.2332 11.7393 11.3856 10.9609 10.467 11.5689 9.33904 9.3209 11.1426 11.1083 11.9843 14.9212 10.1757 8.70641 9.25384 8.53936 10.5712 8.42905 8.39463 12.7203 8.16714 8.14299
threshold=0.50000000000000011 0.3000000000000001 0.70000000000000007 2020.5000000000002 1610612748.5000002 1610612753.5000002 1610612765.5000002 2019.5000000000002 0.43225097656250006 0.90000000000000013 0.45285644531250008 17.900000000000002 2003.5000000000002 97.500000000000014 118.90000000000002 94.500000000000014 1610612763.5000002 23.300000000000001 0.78911132812500007 0.78012695312500002 2007.5000000000002 47.084375000000001 37.500000000000007 0.4300048828125001 0.40002441406250006 22.300000000000001 24.700000000000006 0.66379394531250013 41.100000000000009 38.900000000000006
decision_type=8 10 10 2 2 2 2 2 10 10 10 10 2 8 10 10 2 10 10 10 2 10 10 10 8 10 10 10 10 8
left_child=1 15 7 4 12 -6 9 -2 -9 10 -7 -3 13 -4 -14 17 -17 18 19 20 29 22 -13 24 -11 -5 -24 -28 -10 -1
right_child=2 11 3 25 5 6 -8 8 28 23 -12 21 14 -15 -16 16 -18 -19 -20 -21 -22 -23 26 -25 -26 -27 27 -29 -30 -31
leaf_value=-0.12507665197486498 0.0074859618308244407 0.022652787425814992 -0.0010205306132758979 -0.10793105105497565 0.056380898327723521 -0.015785433109978257 0.083169355784167259 0.029117890657932452 -0.08943174963933842 0.12705165573241647 0.023445078604919175 0.026923035801087986 0.011410064765416514 0.11105349094068243 0.090364690083231503 -0.041234879010179581 0.0039836155054766382 -0.024041547400274279 -0.12546117019819367 0.065636532743953299 -0.097219659940669931 -0.059449752764444475 -0.022256536635616546 0.053364152730061815 -0.017693931378185646 -0.0039427679763123797 -0.15731693398517607 0.0048086631705295309 -0.023205505183807682 0.0069705516389197246
leaf_weight=5.9896945059299496 1193.2424682974815 75.330375984311104 15.188749894499777 8.478507921099661 258.45735448598862 94.805470883846283 43.944268688559532 40.289397642016411 21.892910063266754 5.8783331513404837 336.76514758169651 50.236304327845573 622.94532899558544 23.400426059961319 15.350369945168493 540.61446249485016 60.603427082300186 52.886099144816399 38.168402299284935 8.7326290011405927 53.64162965118885 45.880010798573494 713.21647290885448 171.53013087809086 35.618321418762207 96.675520494580269 4.9611717313528052 197.18578150868416 124.60956273972988 21.197588637471199
leaf_count=24 4931 307 64 35 1095 398 189 165 89 25 1423 205 2621 99 65 2167 247 212 153 35 215 185 2905 729 151 400 20 801 511 85
internal_value=0 -0.026077 0.0157391 0.0252614 0.0276954 0.0357931 0.028065 0.00380872 -0.0196818 0.0243084 0.0148271 -0.0141465 0.0163664 0.066941 0.0133088 -0.0426614 -0.0366768 -0.0625823 -0.07854 -0.0585436 -0.0719598 -0.0168872 -0.0148648 0.0435165 0.00281044 -0.0123273 -0.0171582 0.000829712 -0.0331022 -0.0221211
internal_weight=0 1868.64 3109.07 1729.04 1623.88 946.999 688.542 1380.03 186.792 644.597 431.571 1086.81 676.885 38.5892 638.296 781.834 601.218 180.616 127.73 89.5615 80.8289 1011.48 965.6 213.027 41.4967 105.154 915.363 202.147 146.502 27.1873
internal_count=20551 7561 12990 7294 6859 4010 2915 5696 765 2726 1821 4423 2849 163 2686 3138 2414 724 512 359 324 4116 3931 905 176 435 3726 821 600 109
is_linear=0
shrinkage=0.1


Tree=5
num_leaves=31
num_cat=0
split_feature=4 4 4 2 1 1 9 10 1 1 1 2 14 2 12 5 0 14 2 1 12 8 9 17 17 2 16 6 10 14
split_gain=165.475 29.9273 29.7012 19.1998 12.8418 23.689 14.3575 13.7131 12.9223 38.119 32.4776 13.799 13.3021 13.217 12.0593 11.8722 9.99182 14.8121 10.5141 9.66283 9.17948 9.95157 9.09619 9.07324 9.01772 8.89661 8.81188 11.1002 10.9123 9.07044
threshold=0.50000000000000011 0.3000000000000001 0.90000000000000013 2018.5000000000002 1610612748.5000002 1610612752.5000002 22.300000000000001 39.100000000000009 1610612761.5000002 1610612758.5000002 1610612759.5000002 2010.5000000000002 0.68620605468750007 2016.5000000000002 92.100000000000009 95.500000000000014 1610612759.5000002 0.85131835937500011 2019.5000000000002 1610612757.5000002 91.90000000000002 0.36622314453125004 20.500000000000004 50.300000000000004 46.300000000000004 2016.5000000000002 20.700000000000006 0.47585449218750003 41.100000000000009 0.7086425781250002
decision_type=8 10 10 2 2 2 8 10 2 2 2 2 10 2 10 8 2 10 2 2 8 10 10 8 10 2 10 8 10 8
left_child=1 24 3 4 6 -6 7 -2 9 15 13 12 -12 -11 26 22 17 18 -16 -17 -5 -22 -7 -8 -1 -3 28 -28 -4 -30
right_child=2 25 14 20 5 8 23 -9 -10 10 11 -13 -14 -15 16 19 -18 -19 -20 -21 21 -23 -24 -25 -26 -27 27 -29 29 -31
leaf_value=-0.042187029755294828 -0.062206227084225588 -0.0061027675198927619 -0.09379519277725365 0.025245598199506419 0.046986490624067234 -0.058891680897216581 0.013815886624054589 -0.0031713531786179273 0.028739143128278927 -0.092573053666053284 -0.11279383715296779 -0.029629358206119706 0.04632833078171477 0.038374985371339765 0.065751439007129417 0.022432299508437586 0.011641122325768583 0.014419242597759924 -0.0011647408985457611 0.067312009284089688 0.0071268773917917919 -0.028251571409149197 0.016025417692968925 0.10716457041417676 -0.0083435205599526521 -0.02508136185324622 -0.18622849621823812 0.0039810660290902694 -0.073622815476286782 0.046765767955017135
leaf_weight=693.91933046281338 44.239692404866219 709.55221655964851 8.2259972095489484 62.95757332444191 259.17586289346218 28.650729656219482 477.90144918859005 355.82149419188499 341.0779327750206 73.316444411873817 5.739356964826583 73.779551982879639 62.075495004653931 8.6133900433778745 260.37092189490795 296.29345786571503 92.336541593074799 96.540197238326073 25.808160811662674 57.242042630910873 120.60698327422142 233.32532674074173 37.314388796687126 10.644195720553396 88.806904569268227 378.89573265612125 5.44210512936115 7.0330787152051935 7.2648161798715583 45.171924531459808
leaf_count=2781 183 2894 35 261 1091 119 2000 1476 1432 306 24 309 260 36 1117 1244 393 414 109 240 502 962 156 45 357 1529 23 30 31 192
internal_value=0 -0.0234338 0.0142312 0.00968946 0.0135275 0.020089 0.00434713 -0.00969957 0.0130052 0.00465949 -0.0286955 0.000299794 0.0328614 -0.0788063 0.0353474 0.0224322 0.041167 0.0482906 0.0597168 0.0296989 -0.00993753 -0.0161959 -0.0165134 0.0158497 -0.0383472 -0.0127093 -0.00245278 -0.0789949 0.013288 0.0300866
internal_weight=0 1871.17 3096.97 2548.78 2131.89 1243.28 888.607 400.061 984.103 643.025 223.524 141.594 67.8149 81.9298 548.194 419.501 475.056 382.719 286.179 353.536 416.89 353.932 65.9651 488.546 782.726 1088.45 73.1379 12.4752 60.6627 52.4367
internal_count=20551 7561 12990 10646 8921 5217 3704 1659 4126 2694 935 593 284 342 2344 1759 2033 1640 1226 1484 1725 1464 275 2045 3138 4423 311 53 258 223
is_linear=0
shrinkage=0.1


Tree=6
num_leaves=31
num_cat=0
split_feature=4 4 4 8 6 9 6 8 17 12 5 15 10 15 1 1 1 1 17 13 8 6 1 17 2 7 16 11 5 15
split_gain=134.265 26.3631 24.2461 11.5076 11.821 10.3459 9.62812 9.89934 9.34506 9.26081 11.2941 9.33738 10.2092 9.1641 8.84049 9.74615 13.8375 14.2201 13.2143 11.6185 9.37292 9.16208 8.63711 10.0097 8.30624 11.5145 9.21907 8.17605 8.75776 8.17201
threshold=0.50000000000000011 0.70000000000000007 0.3000000000000001 0.49877929687500006 0.49240722656250008 22.300000000000001 49.15312500000001 40.120312500000004 35.100000000000009 103.50000000000001 110.90000000000002 0.32863159179687507 50.100000000000009 0.34117431640625007 1610612763.5000002 1610612758.5000002 1610612748.5000002 1610612741.5000002 45.300000000000004 0.4309814453125001 0.27540283203125004 0.42980957031250006 1610612749.5000002 45.70000000000001 2016.5000000000002 0.8331542968750002 16.900000000000002 0.90000000000000013 103.7 0.24290771484375004
decision_type=8 10 10 10 10 10 10 10 8 10 10 8 10 8 2 2 2 2 10 10 10 10 2 8 2 10 8 10 10 10
left_child=2 6 -1 4 5 8 7 -2 -3 11 -11 -10 -13 -7 15 16 17 21 24 -20 -21 -4 23 -5 25 -18 -26 -15 -29 -6
right_child=1 3 14 22 29 13 -8 -9 9 10 -12 12 -14 27 -16 -17 18 -19 19 20 -22 -23 -24 -25 26 -27 -28 28 -30 -31
leaf_value=-0.034489600950232978 0.004234880467613388 0.11163578579436401 0.041299161926174874 -0.031696443928681324 -0.067180919170012829 0.0087203298596167621 -0.064786128962896206 -0.11318350751610512 0.017032014311792208 0.027865636941690159 -0.055713076848525583 -0.017590017481073871 -0.14608013269968328 0.036527616357103658 0.015853224382125383 -0.036134988474747005 0.020192753672500788 -0.037145824378840502 0.051864971806547935 0.078137066025469951 -0.062870249998962333 -0.012486568880439192 0.017359135163704811 -0.17802956600932607 0.10192221575406912 0.12678802070280343 -0.017242711057227293 0.054750400789146163 -0.041880221798219944 0.038182669856834217
leaf_weight=783.21122154593468 1347.8797922730446 8.1997363120317441 40.472316414117813 23.743790835142139 7.4847132414579383 237.16463819146156 20.899362489581108 7.2186085730791083 92.690191641449928 178.83909673988819 17.77513425052166 161.32840514183044 6.4302021563053122 454.04963637888432 107.14111259579659 170.4732930213213 182.7472904920578 254.99135704338551 13.285097390413283 5.1400314569473258 56.876978322863579 145.63417237997055 27.494150295853615 5.8204070478677741 6.9665861576795569 10.728624120354651 95.334936171770096 14.099137037992476 28.016555055975914 446.02400255203247
leaf_count=3138 5583 35 165 98 32 1012 84 29 388 760 75 677 27 1946 435 691 747 1032 54 21 231 591 114 24 28 44 384 60 119 1927
internal_value=0 0.012873 -0.0210686 0.0211673 0.0226922 0.017489 0.00257057 0.00360939 0.00582498 0.00392673 0.0203096 -0.00844079 -0.0225151 0.0248893 -0.0114232 -0.0143973 -0.00983458 -0.0218066 0.00439646 -0.0330032 -0.0511834 -0.000789862 -0.0229857 -0.0605056 0.0139181 0.0261037 -0.00912775 0.032618 -0.00953104 0.0364437
internal_weight=0 3085.16 1873 1709.16 1652.1 1198.59 1376 1355.1 465.263 457.063 196.614 260.449 167.759 733.33 1089.79 982.651 812.177 441.098 371.08 75.3021 62.017 186.106 57.0583 29.5642 295.777 193.476 102.302 496.165 42.1157 453.509
internal_count=20551 12990 7561 7294 7058 5099 5696 5612 1962 1927 835 1092 704 3137 4423 3988 3297 1788 1509 306 252 756 236 122 1203 791 412 2125 179 1959
is_linear=0
shrinkage=0.1


Tree=7
num_leaves=31
num_cat=0
split_feature=4 4 4 2 6 0 0 0 15 1 16 10 7 12 7 17 6 0 14 0 6 8 13 17 0 17 15 13 12 9
split_gain=108.908 22.1299 19.6681 14.1549 11.3175 10.409 22.4025 16.917 11.7952 10.5467 10.4711 10.3399 11.2982 10.0916 10.0765 10.6283 10.5682 10.0031 13.2142 11.1619 9.26714 9.02549 8.69876 8.6357 9.57579 8.63085 8.53032 12.2002 8.29981 8.07362
threshold=0.50000000000000011 0.90000000000000013 0.3000000000000001 2018.5000000000002 0.45183105468750001 1610612748.5000002 1610612758.5000002 1610612759.5000002 0.34117431640625007 1610612742.5000002 22.700000000000006 43.500000000000007 0.8404785156250002 87.300000000000026 0.74555664062500016 43.70000000000001 0.50495605468750016 1610612759.5000002 0.85131835937500011 1610612758.5000002 0.46862792968750006 0.42857666015625007 0.44665527343750006 48.100000000000009 1610612738.5000002 42.900000000000006 0.34703369140625007 0.39079589843750001 96.700000000000003 17.900000000000002
decision_type=8 10 10 2 10 2 2 2 8 2 10 10 10 10 10 8 10 2 10 2 10 10 10 8 2 10 10 10 10 10
left_child=2 3 -1 4 21 23 8 -8 -7 10 -9 12 14 26 -10 16 22 18 19 -15 -17 -2 -16 -6 -25 -24 27 -3 -20 -4
right_child=1 13 29 -5 5 6 7 9 11 -11 -12 -13 -14 17 15 20 -18 -19 28 -21 -22 -23 25 24 -26 -27 -28 -29 -30 -31
leaf_value=-0.031039496560848985 0.0018936745801804403 0.046893669862733064 0.021361458687877574 -0.0091265968016354775 0.028250625836699142 -0.030900127839160064 0.070756565137308214 0.014453428800069052 0.017440097687074534 0.025699938080353191 -0.062387098849513628 0.026664659765584461 0.078017468906218468 0.043425371595951397 0.01849879739695064 0.084119571862081188 -0.17531655797059131 0.0051889102013544667 -0.075259810366068852 0.10330409772437579 -0.026701722283296998 -0.077078079753161527 -0.053033799627714352 -0.1404007211029018 0.0011380257858168421 -0.19182995908602882 0.074903167350607772 -0.11546560035796714 0.018183276914238135 -0.012608291168636371
leaf_weight=783.23446480929852 639.8339414447546 7.0004271417856279 75.143450334668159 416.6279145181179 600.9321201890707 141.6787446886301 68.68803246319294 42.924020797014236 50.644780918955803 259.45081478357315 30.219271704554558 120.65907254815102 12.957339346408842 277.96312095224857 15.519713327288626 10.980826050043104 7.0803634822368613 102.35586380958557 10.680322408676146 35.057338148355484 24.120790183544159 14.806866362690924 41.959596678614616 5.9145324528217342 24.917866840958595 5.0157662928104392 6.0112952739000312 13.657843217253683 86.412128761410713 1015.3335379511118
leaf_count=3138 2675 30 307 1725 2547 594 293 179 213 1097 126 509 55 1216 65 46 30 439 46 154 102 62 176 25 106 21 26 58 375 4116
internal_value=0 0.0116359 -0.0189504 0.007723 0.011037 0.0159253 0.00857637 0.0255758 -0.007265 0.016245 -0.0172934 0.00432431 -0.0116941 0.0300337 -0.0191781 -0.0368947 -0.0595276 0.0331548 0.0401345 0.0501316 0.00796646 0.000107467 -0.0464093 0.0256024 -0.0260131 -0.0678537 -0.0299394 -0.0604472 0.00790439 -0.0102675
internal_weight=0 3074.07 1873.71 2534.93 2118.3 1463.66 831.899 401.282 430.617 332.594 73.1433 288.938 168.279 539.138 155.322 104.677 69.5754 512.469 410.113 313.02 35.1016 654.641 62.4951 631.765 30.8324 46.9754 26.6696 20.6583 97.0925 1090.48
internal_count=20551 12990 7561 10646 8921 6184 3506 1695 1811 1402 305 1217 708 2344 653 440 292 2230 1791 1370 148 2737 262 2678 131 197 114 88 421 4423
is_linear=0
shrinkage=0.1


Tree=8
num_leaves=31
num_cat=0
split_feature=4 4 4 1 0 1 1 5 1 12 14 1 7 9 16 8 17 16 14 1 1 0 17 13 7 8 2 12 3 11
split_gain=88.3972 18.8601 16.7246 11.2557 11.9091 11.711 13.1535 11.579 11.4998 12.1062 10.6402 10.13 10.3568 9.50505 9.39665 9.91423 9.38549 8.83858 8.55019 8.19463 8.61247 8.09229 14.2211 7.92795 7.72594 8.54219 7.57514 8.4465 7.77514 7.96158
threshold=0.50000000000000011 0.70000000000000007 1.0000000180025095e-35 1610612748.5000002 1610612744.5000002 1610612753.5000002 1610612763.5000002 89.700000000000003 1610612758.5000002 102.50000000000001 0.67719726562500016 1610612765.5000002 68.50937500000002 20.500000000000004 25.300000000000001 0.43620605468750001 41.500000000000007 26.900000000000002 0.68620605468750007 1610612743.5000002 1610612744.5000002 1610612764.5000002 46.500000000000007 11.0690673828125 75.081250000000011 0.36182861328125004 2003.5000000000002 104.10000000000001 1.0000000180025095e-35 0.50000000000000011
decision_type=8 10 10 2 2 2 2 10 2 8 10 2 10 10 8 10 10 8 8 2 2 2 10 10 10 10 2 10 2 10
left_child=2 21 -1 4 19 10 7 -7 9 -9 -5 12 13 16 15 -12 23 24 -10 -4 -21 -2 -23 -3 25 -8 27 -15 29 -28
right_child=1 11 3 5 -6 6 17 8 18 -11 14 -13 -14 26 -16 -17 -18 -19 -20 20 -22 22 -24 -25 -26 -27 28 -29 -30 -31
leaf_value=-0.045302941488004768 0.0037325057069384493 -0.030833520014902069 0.021671428399767115 -0.071056657921659286 -0.030958377286274392 -0.074163884172854785 0.015271166756311844 0.019187341936018325 -0.1003766281782676 -0.024083260881715488 0.015190537982684408 0.064016472532675089 -0.036661824807940273 0.031368459545092958 0.064704787522602655 -0.045509206043013353 0.016445297398328895 0.086398207266012467 -0.027813235416319994 -0.10212560866571103 -0.0086807646402929615 -0.013598014989966331 -0.14404492811732886 0.066030650237864197 0.085504518368362425 -0.035907192825825655 0.032108489087880242 0.10700974061114164 -0.0042179576518272741 0.015025438102910025
leaf_weight=188.44278502464294 1292.654667660594 99.092527806758881 84.133144989609718 15.438015952706335 527.08997133374214 38.903970330953598 93.236364781856537 127.27925825119019 17.464500188827515 131.41845124959946 212.39876480400562 45.733332902193069 36.109154254198074 55.11180205643177 32.559939563274384 30.811701342463493 143.04518508911133 14.026412308216093 231.28024253249168 11.920902788639067 57.139986723661423 71.063192948698997 9.4710960090160352 9.2372286319732648 10.687397122383116 50.158514022827148 443.6179016828537 20.163558334112167 129.75226081907749 708.57033437490463
leaf_count=756 5364 417 341 62 2122 157 378 515 70 531 861 205 147 240 132 124 607 57 931 48 230 293 39 39 43 203 1936 90 560 3053
internal_value=0 0.0105218 -0.0170489 -0.0138909 -0.0238254 -0.00717067 -0.0140601 -0.0215866 -0.0175557 -0.00279413 0.00973202 0.0175934 0.0163026 0.0174915 0.0142547 0.00750065 -0.000370008 0.0104007 -0.0329079 0.000716981 -0.0248107 0.0018164 -0.028939 -0.022574 0.00348254 -0.00263066 0.0207997 0.05163 0.0189893 0.0216028
internal_weight=0 3063.62 1874.39 1685.95 680.284 1005.66 714.455 546.346 507.442 258.698 291.208 1690.43 1644.7 1608.59 275.77 243.21 251.375 168.109 248.745 153.194 69.0609 1373.19 80.5343 108.33 154.082 143.395 1357.22 75.2754 1281.94 1152.19
internal_count=20551 12990 7561 6805 2741 4064 2885 2204 2047 1046 1179 7294 7089 6942 1117 985 1063 681 1001 619 278 5696 332 456 624 581 5879 330 5549 4989
is_linear=0
shrinkage=0.1


Tree=9
num_leaves=31
num_cat=0
split_feature=4 4 4 2 1 6 10 0 0 0 7 1 12 8 9 1 12 10 13 16 14 6 1 15 16 12 6 15 14 8
split_gain=71.7189 16.5957 14.6369 11.1215 10.4485 9.60281 9.63637 13.7663 15.9679 14.5146 12.664 10.6578 11.0473 10.8077 8.61374 10.8788 10.3214 10.8973 8.71737 8.60922 8.59811 8.16357 8.7533 8.0405 9.90389 7.79144 8.85019 8.0702 7.53016 7.48153
threshold=0.50000000000000011 0.90000000000000013 0.3000000000000001 2018.5000000000002 1610612765.5000002 0.45021972656250003 43.70000000000001 1610612748.5000002 1610612758.5000002 1610612760.5000002 0.83920898437500002 1610612743.5000002 96.700000000000003 0.37681884765625007 23.300000000000001 1610612763.5000002 92.100000000000009 46.500000000000007 0.44533691406250003 20.300000000000001 0.7369628906250002 0.49099121093750003 1610612739.5000002 7.7231689453125005 22.500000000000004 108.7 0.43908691406250006 0.41643066406250001 0.84545898437500011 0.42999267578125006
decision_type=8 10 10 2 2 10 10 2 2 2 10 2 8 10 10 2 10 10 10 8 10 10 2 10 10 10 10 10 10 10
left_child=2 3 -1 4 5 29 7 21 10 -10 -9 12 13 -11 16 -16 19 28 -19 -3 -14 22 -7 -13 -25 -5 -27 -28 -18 -2
right_child=1 14 -4 25 -6 6 -8 8 9 11 -12 23 20 -15 15 -17 17 18 -20 -21 -22 -23 -24 24 -26 26 27 -29 -30 -31
leaf_value=-0.025788295544979301 -0.0012478289069865079 -0.012758110728165288 -0.007866336728096078 -0.0025139161730330811 0.050096624158791417 -0.046039181251093346 0.022142658396647679 -0.028837044683276181 0.050896299529364024 -0.067746887088093719 0.052049093511073723 0.022441870189609522 -0.15832771301208881 0.10683998608637309 0.029997221106940655 0.095917395733567001 0.047851424879243848 -0.11215152615935808 -0.0014522379939457283 -0.13504372104098575 -0.043630808288778994 0.042540513829247797 0.016579282890381904 -0.16659649068480531 -0.0015091113574652619 0.089233599076189829 -0.081353022499075237 -0.012268886075079555 -0.0059514485307000514 -0.079919238596192224
leaf_weight=781.93834909796715 577.77098886668682 21.233622118830684 1092.2391807585955 343.70215091109276 60.316909492015839 24.84641444683075 585.8924325555563 239.76629000902176 72.138982340693474 6.2814863026142111 21.056184828281403 112.22824178636074 8.8640712648630124 8.141474246978758 305.75983993709087 27.267350003123283 92.504944637417793 9.246822923421858 30.837059080600739 7.8989133834838858 24.88292621076107 114.83059151470661 219.87143898010254 5.1739590167999294 12.208873525261877 5.0455762892961493 35.078896418213844 32.646051526069641 36.190109059214592 12.346367970108984
leaf_count=3138 2418 91 4423 1424 263 104 2500 1004 311 26 90 478 37 34 1357 123 409 40 134 33 103 496 932 22 52 21 145 135 157 51
internal_value=0 0.00950591 -0.0153437 0.00612435 0.00907635 0.00786723 0.0122281 0.00555353 -0.00499894 0.0130643 -0.0223071 -0.00228699 -0.0424498 0.0308039 0.0255755 0.0353946 0.00905295 0.0185407 -0.0269891 -0.0459143 -0.0737574 0.0205434 0.0102216 0.0126395 -0.050647 -0.00880756 -0.038533 -0.0480518 0.0327216 -0.00289378
internal_weight=0 3054.03 1874.18 2523.09 2106.62 2046.3 1456.18 870.291 510.742 249.92 260.822 177.781 48.17 14.423 530.939 333.027 197.911 168.779 40.0839 29.1325 33.747 359.548 244.718 129.611 17.3828 416.473 72.7705 67.7249 128.695 590.117
internal_count=20551 12990 7561 10646 8921 8658 6189 3689 2157 1063 1094 752 200 60 2344 1480 864 740 174 124 140 1532 1036 552 74 1725 301 280 566 2469
is_linear=0
shrinkage=0.1


Tree=10
num_leaves=31
num_cat=0
split_feature=4 4 4 1 1 1 2 1 2 6 0 9 1 1 12 0 1 1 6 5 1 12 8 9 10 7 7 0 14 12
split_gain=58.2321 13.6591 12.5658 9.61855 17.927 26.7736 21.7333 21.0197 19.4661 11.1598 10.6178 10.7297 9.84232 9.11468 11.1938 10.1855 9.48195 10.6662 9.67861 9.23718 9.28568 10.738 9.3955 9.03484 10.6707 9.00892 14.5429 8.79659 9.79725 8.63079
threshold=0.50000000000000011 0.90000000000000013 1.0000000180025095e-35 1610612763.5000002 1610612758.5000002 1610612759.5000002 2010.5000000000002 1610612748.5000002 2016.5000000000002 45.578125000000007 1610612748.5000002 21.300000000000001 1610612752.5000002 1610612748.5000002 85.500000000000014 1610612743.5000002 1610612753.5000002 1610612763.5000002 47.478125000000013 89.700000000000003 1610612758.5000002 108.10000000000001 0.28299560546875008 22.300000000000001 38.900000000000006 0.67944335937500011 0.70786132812500002 1610612753.5000002 0.68168945312500007 83.90000000000002
decision_type=8 10 10 2 2 2 2 2 2 10 2 10 2 2 10 2 2 2 10 10 2 8 10 8 10 8 10 2 10 10
left_child=2 3 -1 4 7 8 -7 9 -6 23 11 -8 -9 14 -4 -16 18 19 -15 -18 21 -21 -23 24 -2 -5 -27 -12 -29 -25
right_child=1 -3 13 25 5 6 10 12 -10 -11 27 -13 -14 16 15 -17 17 -19 -20 20 -22 22 -24 29 -26 26 -28 28 -30 -31
leaf_value=-0.038352312805786715 -0.059692247067527217 0.023246047996739058 -0.09391830953562165 0.10962564563190334 -0.085821642370213488 0.029667357371269656 0.084293638576797753 0.034185625772581572 0.023342028464876374 -0.053147250368783865 -0.095882112181404744 -0.01210250720807605 0.011321937227700104 0.013537302849850143 0.007081530400985735 -0.023985490869715045 -0.06493187979943868 0.01080852537730467 -0.089220160039565385 0.010686727970434764 -0.028185003539418153 0.08403897845850726 -0.048224111655056141 0.096520484812107371 -0.0054553746226127416 -0.058269487323440741 0.028504045550798884 0.10711774279440317 -0.037555616522471837 0.0068726842812424074
leaf_weight=187.72344510257244 40.098633483052254 526.35489915311337 19.895189508795738 11.874595403671263 74.025386437773705 133.60376515984535 13.3779079914093 304.72949559986591 20.960455417633057 40.168185174465179 25.5152937322855 84.366459056735039 492.69981035590172 281.443947955966 131.82862065732479 529.04960113763809 38.945588231086731 168.05903069674969 9.4747061729431135 193.59825330972672 248.95509341359138 5.905983477830886 59.274268954992294 10.940240472555159 380.38343538343906 21.344837665557861 203.01184332370758 5.0100621730089179 71.240457236766815 584.35979145765305
leaf_count=756 165 2344 80 51 306 570 56 1305 88 162 106 357 2093 1141 533 2128 157 681 38 783 1001 24 239 47 1583 91 870 21 300 2475
internal_value=0 0.0085957 -0.0138099 0.00553288 0.00354398 -0.0149 -0.00154594 0.00780424 -0.0617326 -0.00145032 -0.0224482 0.00109087 0.0200591 -0.0110779 -0.0200133 -0.0177884 -0.00502922 -0.0112241 0.0101907 -0.0179974 -0.0143973 -0.00113295 -0.0362398 0.000593992 -0.0106276 0.0247413 0.0202486 -0.0450571 -0.0280498 0.0085202
internal_weight=0 3044.07 1874.15 2517.71 2281.48 428.1 333.114 1853.38 94.9858 1055.95 199.51 97.7444 797.429 1686.43 680.773 660.878 1005.66 714.738 290.919 546.679 507.734 258.779 65.1803 1015.78 420.482 236.231 224.357 101.766 76.2505 595.3
internal_count=20551 12990 7561 10646 9634 1804 1410 7830 394 4432 840 413 3398 6805 2741 2661 4064 2885 1179 2204 2047 1046 263 4270 1748 1012 961 427 321 2522
is_linear=0
shrinkage=0.1


Tree=11
num_leaves=31
num_cat=0
split_feature=4 4 4 1 1 2 12 1 9 14 2 16 17 10 8 17 1 11 14 2 13 5 9 6 14 7 16 11 6 8
split_gain=47.2812 12.0069 10.8966 7.69858 10.3974 8.71836 9.56453 8.37868 10.7315 10.4428 9.67351 9.39028 9.84161 10.6315 8.27555 8.50801 8.06009 10.7622 10.5481 8.01792 14.8648 10.5351 7.96921 7.78937 9.67798 11.7022 8.96775 9.87919 7.998 10.8366
threshold=0.50000000000000011 0.70000000000000007 0.3000000000000001 1610612748.5000002 1610612754.5000002 2005.5000000000002 103.10000000000001 1610612763.5000002 19.300000000000001 0.73100585937500007 2008.5000000000002 18.300000000000001 39.900000000000006 42.100000000000009 0.49877929687500006 43.100000000000009 1610612758.5000002 0.70000000000000007 0.80375976562500007 2019.5000000000002 0.48471679687500008 117.50000000000001 20.300000000000001 0.47702636718750008 0.69938964843750007 0.80815429687500007 15.900000000000002 0.3000000000000001 0.44919433593750008 0.32720947265625006
decision_type=8 10 10 2 2 2 8 2 10 8 2 10 8 10 10 10 2 10 10 2 10 8 10 10 8 10 10 10 10 10
left_child=2 -2 -1 5 -5 6 -3 8 -6 22 11 12 -11 -14 23 -16 19 -18 -19 -12 21 -21 -10 24 25 -7 -26 -28 29 -29
right_child=1 3 -4 4 7 14 -8 -9 9 10 16 -13 13 -15 15 -17 17 18 -20 20 -22 -23 -24 -25 26 -27 27 28 -30 -31
leaf_value=-0.021465972663779975 0.00082793921375882138 0.007141762041204364 -0.005993779649692367 0.034227038340131632 -0.047309278415138517 -0.10633670572003054 0.067507585808203083 0.032814318431722042 -0.087125226315641846 0.042083288929062566 0.022598417073944596 0.038636556980277202 0.033306356480731075 -0.15112834889427304 -0.0077682469734222633 -0.1241846964541836 -0.047878781470757359 0.040905769898977748 -0.04956973850727945 -0.21333350422644909 0.088464743178045424 -0.014150622642819169 0.045835080117394122 0.014900777905653429 0.12468280300985807 0.0574599514191792 0.047220806205450223 0.024796804140537573 -0.0022470318501990262 -0.075224129616709212
leaf_weight=779.88566596806049 1368.6084005534649 65.159265920519829 1093.2763108760118 313.39617456495762 35.27250674366951 18.89861819148064 43.951379999518394 149.92923060059547 4.7418532073497763 10.508530959486963 92.264044508337975 99.807502195239067 4.811478689312934 8.9189252108335477 15.710483029484751 10.455580547451971 83.148850068449974 36.263501644134521 19.988616198301315 5.7421337962150547 4.9462174922227851 4.9398427605628976 91.355324864387512 284.44059199094772 5.3991760015487662 5.6704248338937751 31.051522895693779 15.136485576629637 166.39909410476685 38.091011345386505
leaf_count=3138 5696 281 4423 1395 149 80 195 674 20 46 408 445 21 38 65 43 361 156 86 24 21 21 402 1244 23 24 135 64 712 161
internal_value=0 0.00776837 -0.0124356 0.0134685 0.0192559 0.00548581 0.031458 0.0120668 0.00587897 0.00989253 0.00228898 0.0250777 -0.0307528 -0.0864978 0.000692863 -0.0542866 -0.00914224 -0.025025 0.00875622 0.0113789 -0.0548576 -0.121222 0.0392742 0.00323866 -0.00858113 -0.0685332 -0.0028291 -0.00557549 -0.01304 -0.0467808
internal_weight=0 3035.01 1873.16 1666.4 966.035 700.364 109.111 652.639 502.709 467.437 371.34 124.046 24.2389 13.7304 591.253 26.1661 247.293 139.401 56.2521 107.892 15.6282 10.682 96.0972 565.087 280.646 24.569 256.077 250.678 219.627 53.2275
internal_count=20551 12990 7561 7294 4267 3027 476 2872 2198 2049 1627 550 105 59 2551 108 1077 603 242 474 66 45 422 2443 1199 104 1095 1072 937 225
is_linear=0
shrinkage=0.1


Tree=12
num_leaves=31
num_cat=0
split_feature=4 0 2 2 0 0 0 0 2 1 16 13 0 15 13 8 10 1 7 15 1 1 12 1 0 9 1 1 5 2
split_gain=38.3977 11.6086 10.5258 10.2892 12.1807 33.8459 21.9045 11.4622 12.042 11.5439 11.6507 10.6922 10.3523 13.9387 13.4606 13.8751 11.9066 10.0327 12.6517 17.4773 12.7968 15.8962 12.8061 10.9441 12.7955 9.68468 9.64762 19.7092 9.8341 14.4967
threshold=0.50000000000000011 1610612765.5000002 2007.5000000000002 2019.5000000000002 1610612758.5000002 1610612759.5000002 1610612748.5000002 1610612746.5000002 2012.5000000000002 1610612747.5000002 13.700000000000001 10.360498046875003 1610612752.5000002 0.31820068359375003 0.40861816406250001 0.39550781250000006 50.900000000000006 1610612763.5000002 14.975585937500002 0.34312744140625007 1610612758.5000002 1610612748.5000002 84.300000000000026 1610612741.5000002 1610612749.5000002 17.500000000000004 1610612758.5000002 1610612760.5000002 98.500000000000014 2004.5000000000002
decision_type=8 2 2 2 2 2 2 2 2 2 10 10 2 10 8 8 10 2 10 10 2 2 10 2 2 8 2 2 8 2
left_child=17 3 -3 4 6 11 7 9 -9 -2 -11 -6 13 14 -8 -16 -15 18 20 -20 21 22 -1 24 -24 -7 28 -28 29 -12
right_child=1 2 -4 -5 5 25 12 8 -10 10 26 -13 -14 16 15 -17 -18 -19 19 -21 -22 -23 23 -25 -26 -27 27 -29 -30 -31
leaf_value=-0.1055679115874987 -0.0046168331768879868 -0.11625203413310864 -0.015118349733904499 -0.0081246869763736077 0.078808068194972269 -0.049911432184927947 0.049546134206652825 0.051574171223134652 -0.00090456413612270258 -0.10432530800099418 -0.087060818451488053 -0.0029705359666314371 0.001494324183199571 -0.015958429015086949 -0.052639170251431638 -0.16938595634282369 0.10095438772501497 0.01086685438639013 -0.07595415219491207 -0.01214489710152627 -0.030297554655928118 0.0060577123671696686 0.031091806458092553 -0.025299815647133905 -0.01476937659086988 0.013619894313069864 -0.03583751771959489 0.023138912105498937 0.040498803977775111 0.02069977604557717
leaf_weight=15.833086028695105 343.97001829743385 12.530212238430975 57.59197111427784 349.87772971391678 112.94005087018013 25.172513097524643 8.5853343307971937 146.57358583807945 62.314896479249001 7.6642314940690985 15.253321573138235 18.62423649430275 493.39933027327061 200.21103495359421 35.602832719683647 14.25628340244293 9.1071201115846616 185.68266521394253 74.093038201332092 102.04033042490482 272.23601843416691 563.00891453027725 92.364595025777817 389.19976687431335 178.22785156965256 512.67080318927765 80.547158718109131 191.10805448889732 259.4870827049017 68.758082553744316
leaf_count=64 1475 52 242 1455 507 105 36 641 271 32 65 83 2105 851 150 60 40 752 298 410 1096 2282 375 1566 718 2197 343 839 1146 295
internal_value=0 0.00702341 -0.03319 0.00797731 0.0101389 0.0217676 0.00611985 0.0146767 0.0359189 0.010087 0.0182077 0.0672315 -0.00709691 -0.0229278 -0.0661063 -0.0860207 -0.0108717 -0.0111953 -0.0136237 -0.0389872 -0.0106668 -0.00635227 -0.0166937 -0.014561 0.000884976 0.0106465 0.0197343 0.0056521 0.0308712 0.00113449
internal_weight=0 3026.25 70.1222 2956.12 2606.25 669.408 1936.84 1175.68 208.888 966.788 622.818 131.564 761.162 267.763 58.4445 49.8591 209.318 1872.69 1687 176.133 1510.87 1238.63 675.625 659.792 270.592 537.843 615.154 271.655 343.498 84.0114
internal_count=20551 12990 294 12696 11241 2892 8349 5107 912 4195 2720 590 3242 1137 246 210 891 7561 6809 708 6101 5005 2723 2659 1093 2302 2688 1182 1506 360
is_linear=0
shrinkage=0.1


Tree=13
num_leaves=31
num_cat=0
split_feature=4 1 1 1 2 1 2 2 2 5 1 1 8 16 2 6 2 6 4 14 2 10 15 10 15 6 10 12 14 12
split_gain=31.2006 9.48849 14.9648 19.7296 19.391 19.1425 17.7213 13.2484 20.4032 16.5125 14.8611 17.7923 12.4054 10.8752 10.404 10.1203 9.36806 11.9637 9.32339 9.08112 8.72255 8.53269 12.1001 7.93401 7.77534 7.85351 9.52208 7.81584 7.77272 7.70658
threshold=0.50000000000000011 1610612763.5000002 1610612758.5000002 1610612759.5000002 2010.5000000000002 1610612748.5000002 2016.5000000000002 2007.5000000000002 2012.5000000000002 109.7 1610612765.5000002 1610612764.5000002 0.4719970703125001 21.500000000000004 2004.5000000000002 0.45021972656250003 2019.5000000000002 0.50046386718750013 1.0000000180025095e-35 33.158544921875006 2006.5000000000002 41.900000000000006 0.38961181640625003 41.100000000000009 0.39862060546875006 0.5150390625000002 44.300000000000004 89.90000000000002 0.69780273437500007 117.7
decision_type=8 2 2 2 2 2 2 2 2 10 2 2 10 8 2 10 2 10 10 8 2 10 10 10 10 10 10 8 10 10
left_child=18 2 5 6 28 12 13 10 -9 -10 11 20 14 -4 21 -16 17 -7 -1 -6 -3 22 -2 29 27 26 -26 -18 -5 -17
right_child=1 7 3 4 19 16 -8 8 9 -11 -12 -13 -14 -15 15 23 24 -19 -20 -21 -22 -23 -24 -25 25 -27 -28 -29 -30 -31
leaf_value=-0.031303971146618509 0.032677127597249576 0.051026560200924692 -0.043242618086841683 -0.042533452020877993 -0.015080033674567284 0.017905155044557697 0.02737461998128058 0.080830886248681039 -0.019581974890963513 0.051908582889011623 0.070238919148390061 -0.08365187641327472 -0.037240045627380161 -0.11680197888257782 -0.019136914728875076 -0.017270117503919893 0.072850467011906492 0.053515531990242927 -0.0077359773625712367 -0.12437843804446572 -0.098160941221207984 0.049634721289810321 -0.072696452437566117 0.010068444164527483 -0.097104730841768822 0.08473123542836164 0.036143505327953428 -0.036586571544277656 0.032633144063869683 0.079733358444954827
leaf_weight=186.42387479543686 31.642461821436882 22.657305076718334 60.166432663798332 15.129668220877646 228.66407330334187 731.50947481393814 24.961122080683708 70.57919904589653 68.741843864321709 60.958899632096291 17.477031901478767 33.201298162341118 83.284135401248932 30.179812088608742 229.82098311185837 186.6316002458334 7.2009397596120825 108.31303073465824 1684.9731353521347 7.8631241470575324 4.7386803328990927 79.939076572656631 16.621956765651703 628.16587942838669 7.9117985069751766 15.170037493109701 16.647551909089088 69.626168191432953 151.62818071246147 8.5659628063440305
leaf_count=756 136 99 249 65 970 3193 106 314 298 268 80 145 344 125 955 789 30 498 6805 33 21 348 70 2697 33 62 71 290 664 37
internal_value=0 0.00635113 0.00456386 -0.0107313 -0.000301717 0.00813513 -0.0472087 0.023942 0.0375633 0.0140183 -0.0109999 -0.0344303 6.19197e-05 -0.0678148 0.00269159 -0.000582584 0.0188108 0.0224979 -0.0100838 -0.0187136 0.0252216 0.0295888 -0.00361286 0.00459639 -0.00775579 0.0281606 -0.00678243 -0.0263291 0.0258134 -0.0130133
internal_weight=0 3018 2739.64 518.592 403.285 2221.05 115.307 278.354 200.28 129.701 78.0743 60.5973 1264.67 90.3462 1181.39 1053.18 956.379 839.823 1871.4 236.527 27.396 128.203 48.2644 823.363 116.556 39.7294 24.5594 76.8271 166.758 195.198
internal_count=20551 12990 11765 2212 1732 9553 480 1225 880 566 345 265 5376 374 5032 4478 4177 3691 7561 1003 120 554 206 3523 486 166 104 320 729 826
is_linear=0
shrinkage=0.1


Tree=14
num_leaves=31
num_cat=0
split_feature=4 4 6 0 14 0 2 2 0 16 0 7 0 14 6 13 9 14 17 6 6 16 2 8 10 17 15 1 1 9
split_gain=26.6887 13.9581 8.93785 7.96207 10.2256 8.50983 16.0923 16.8713 13.3249 13.3923 11.8963 12.0696 8.38323 11.8663 11.0189 8.31991 8.26113 8.62703 8.44273 8.14543 8.10985 8.09889 8.04064 11.0624 9.49133 8.81942 8.32102 7.93835 10.6215 9.37491
threshold=0.70000000000000007 0.3000000000000001 47.084375000000001 1610612763.5000002 16.874169921875005 1610612758.5000002 2019.5000000000002 2013.5000000000002 1610612759.5000002 27.700000000000006 1610612748.5000002 0.7232910156250002 1610612752.5000002 0.76020507812500016 0.4895751953125001 0.43969726562500006 17.300000000000001 47.900390625000007 42.500000000000007 45.087500000000006 0.46159667968750001 18.700000000000006 2018.5000000000002 0.37340087890625007 46.100000000000009 46.500000000000007 0.35029296875000004 1610612744.5000002 1610612747.5000002 28.900000000000002
decision_type=10 8 10 2 8 2 2 2 2 10 2 10 2 10 10 10 8 10 10 10 10 8 2 10 10 10 10 2 2 10
left_child=1 -1 3 5 22 10 7 8 -7 -10 16 12 20 -14 -15 -8 -3 -18 -19 -13 21 -12 23 24 25 -5 -25 -4 -29 -30
right_child=-2 2 27 4 -6 6 15 -9 9 -11 11 19 13 14 -16 -17 17 18 -20 -21 -22 -23 -24 26 -26 -27 -28 28 29 -31
leaf_value=-0.016895340897974901 0.010433619616929735 0.06765547582004762 -0.081367992755175922 -0.018091586583460148 -0.065822377431275877 0.074319533023741044 -0.097425170323499982 0.055518974325093617 0.0032855335764623893 -0.13345127987595934 -0.13263477074251215 -0.0052906889025629931 -0.054584577522216682 -0.0041160165043008937 0.12227109469785147 -0.010776578029475814 0.0039132955885350035 -0.011026351737680379 0.1578180751750832 0.066621207065308774 -0.10809137236199284 -0.016548897470957825 -0.054439974260029778 0.080970241382998742 0.048958526091899414 -0.11051910780006245 0.0012992790576890293 0.088379402768442 -0.04404045503509986 0.083705561730258879
leaf_weight=776.79227578639984 1645.1021049022675 21.597038969397545 24.166473492980003 95.300804883241653 36.942163333296776 25.909807249903679 15.024365335702894 111.09337714314461 174.15083460509777 7.4700782150030127 7.1693810522556296 622.54643666744232 48.247785940766335 62.7297293394804 7.7504099756479254 42.225203990936279 884.19521614909172 5.0260575562715513 7.2095216810703278 16.160023808479309 23.399739608168602 37.160675600171089 32.622951954603195 24.293630838394165 18.792473256587982 11.577968567609785 28.474443688988686 8.7259099036455137 51.924008995294571 6.4594241231679908
leaf_count=3138 7294 90 97 390 151 111 61 461 721 31 29 2548 198 257 32 171 3666 21 30 65 95 151 132 100 77 47 117 35 209 26
internal_value=0 -0.00521014 -0.00151784 -0.000333794 -0.0172869 0.00165031 0.0152974 0.0240681 0.00723214 -0.00233846 -0.00129232 -0.0100058 -0.0323897 -0.0163747 0.00978225 -0.0335163 0.00653972 0.00506731 0.0884612 -0.00347123 -0.0604636 -0.0353232 -0.00879178 -0.000446204 -0.0165804 -0.0281041 0.0379786 -0.0322238 -0.0145267 -0.0299069
internal_weight=0 3235.14 2458.35 2367.07 248.004 2119.07 375.874 318.624 207.531 181.621 1743.19 825.164 186.458 118.728 70.4801 57.2496 918.028 896.431 12.2356 638.706 67.7298 44.3301 211.062 178.439 125.671 106.879 52.7681 91.2758 67.1093 58.3834
internal_count=20551 13257 10119 9752 1014 8738 1556 1324 863 752 7182 3375 762 487 289 232 3807 3717 51 2613 275 180 863 731 514 437 217 367 270 235
is_linear=0
shrinkage=0.1


Tree=15
num_leaves=31
num_cat=0
split_feature=4 1 1 1 1 2 2 2 0 6 5 0 2 5 2 1 5 8 11 1 1 1 14 2 6 13 1 9 7 1
split_gain=21.6594 11.5979 15.9001 19.2165 11.8601 16.0355 11.5919 11.2353 11.1781 10.0594 10.7565 9.78971 9.76357 9.8663 9.73971 18.6882 15.5924 11.8766 11.1802 9.65161 11.6739 10.4094 12.1787 11.9191 9.93173 9.66234 9.49985 11.97 9.48149 9.41259
threshold=0.70000000000000007 1610612763.5000002 1610612758.5000002 1610612749.5000002 1610612737.5000002 2007.5000000000002 2004.5000000000002 2017.5000000000002 1610612763.5000002 48.740625000000001 116.30000000000003 1610612741.5000002 2018.5000000000002 111.90000000000002 2008.5000000000002 1610612759.5000002 108.90000000000002 0.35429687500000007 0.3000000000000001 1610612750.5000002 1610612757.5000002 1610612755.5000002 31.893164062500002 2014.5000000000002 0.45876464843750003 0.46281738281250001 1610612760.5000002 18.100000000000005 0.74604492187500016 1610612756.5000002
decision_type=10 2 2 2 2 2 2 2 2 10 10 2 2 10 2 2 10 10 10 2 2 2 10 2 10 10 2 10 10 2
left_child=1 2 3 4 5 -1 11 19 9 10 -6 -5 -10 -14 15 -4 18 -18 -16 -8 21 22 -21 25 -22 28 -20 -28 -23 -27
right_child=-2 -3 14 6 8 -7 7 -9 12 -11 -12 -13 13 -15 16 -17 17 -19 26 20 24 23 -24 -25 -26 29 27 -29 -30 -31
leaf_value=0.089029827764157909 0.00942074405971325 0.013527129969176708 -0.066179578580028126 -0.082363737026421247 -0.010920753867152643 -0.00016715904738499304 0.056000022713106196 -0.0060096353082363732 -0.026354020450404348 -0.074943398297215455 0.03237350055501486 -0.0069085549670802483 -0.13062317691992184 -0.0051981819060514731 -0.11618679285700768 0.018314127892315572 0.051144255999990673 -0.019633511431108804 -0.063327907986322346 0.013745990015463588 0.018834150075185914 -0.050336991585327312 0.094947178414967845 0.037934361945325325 0.098066214630748452 -0.097960261296014095 0.087756906192602652 -0.030037659946379549 0.041488137350323612 -0.014467869780704197
leaf_weight=26.278151258826256 1640.0571848005056 315.42597776651382 33.750947073101997 23.163568571209908 1087.627016633749 86.496260270476341 62.687848255038261 259.90633460879326 113.45641197264194 23.344954818487167 60.582955658435822 66.726238235831261 19.98436459898949 9.1401917338371259 20.130271703004837 116.64717902243137 31.797175988554955 93.194707855582237 94.305582284927368 325.61762581765652 34.932656720280647 19.670848593115807 19.581067264080048 32.629644230008125 28.916603252291679 29.787983968853951 9.2088123708963376 136.47457619011402 26.251542195677757 24.697719544172287
leaf_count=109 7294 1303 136 95 4447 353 262 1056 461 94 249 276 81 37 82 482 130 379 383 1349 144 81 81 135 122 123 38 558 109 102
internal_value=0 -0.00468852 -0.00665826 -0.00315726 -0.0105044 0.0206171 0.00782542 0.0113785 -0.0131752 -0.00995768 -0.00863642 -0.0263525 -0.0396123 -0.0912609 -0.0222277 -0.000647163 -0.0306555 -0.00162808 -0.0446037 0.0188511 0.0145552 0.00919312 0.0183521 -0.014572 0.0547175 -0.031635 -0.0385993 -0.0225917 0.00215486 -0.0601142
internal_weight=0 3232.42 2916.99 2381.48 1426.91 112.774 954.57 864.68 1314.14 1171.55 1148.21 89.8898 142.581 29.1246 535.509 150.398 385.111 124.992 260.119 604.774 542.086 478.236 345.199 133.038 63.8493 100.408 239.989 145.683 45.9224 54.4857
internal_count=20551 13257 11954 9766 5831 462 3935 3564 5369 4790 4696 371 579 118 2188 618 1570 509 1061 2508 2246 1980 1430 550 266 415 979 596 190 225
is_linear=0
shrinkage=0.1


Tree=16
num_leaves=31
num_cat=0
split_feature=4 9 8 2 7 1 17 10 2 1 0 0 0 2 0 14 12 9 0 17 9 6 16 6 17 10 16 6 7 2
split_gain=19.731 10.1848 21.317 12.6979 12.5395 10.4913 10.6529 10.468 9.97359 15.8558 12.8934 15.7627 12.5934 14.7516 10.2211 16.3652 9.73655 9.87915 8.80468 8.74723 8.39892 8.36475 9.07294 8.35331 8.42851 15.1089 9.89631 8.28233 8.42924 8.30733
threshold=0.3000000000000001 28.100000000000005 0.34169921875000003 2017.5000000000002 0.70100097656250016 1610612763.5000002 44.100000000000009 41.100000000000009 2012.5000000000002 1610612765.5000002 1610612748.5000002 1610612752.5000002 1610612746.5000002 2005.5000000000002 1610612743.5000002 0.69780273437500007 92.100000000000009 18.300000000000001 1610612765.5000002 41.900000000000006 20.500000000000004 0.43908691406250006 18.900000000000002 0.43381347656250008 41.70000000000001 48.100000000000009 18.700000000000006 0.49187011718750001 0.78061523437500002 2003.5000000000002
decision_type=8 10 10 2 10 2 10 10 2 2 2 2 2 2 2 10 10 10 2 10 10 10 10 10 10 10 10 10 10 2
left_child=-1 8 19 7 -5 6 -6 -4 9 10 12 27 13 16 -15 -16 -2 -18 -13 -3 -19 -20 -23 24 25 -10 -26 29 -29 -12
right_child=1 2 3 4 5 -7 -8 -9 23 -11 11 18 -14 14 15 -17 17 20 21 -21 -22 22 -24 -25 26 -27 -28 28 -30 -31
leaf_value=-0.014576902921239832 -0.059231556047518945 -0.0011502578830609774 -0.0052218796127029661 0.13516137656266558 0.0092824686957864201 0.091951941449243971 -0.062362699738625918 0.069357960784149672 0.017755612400083286 0.060113975632023912 0.030386281224339728 0.0061946212297832454 0.040267703403888355 0.027051784870282813 -0.1069117960164338 0.0065845684654358069 0.064797259441058463 -0.061190191167050351 -0.095880661331670669 -0.13379165409366267 -0.00031713385328666055 -0.13617241224816451 0.011663125102385898 -0.0064099104060167727 0.11551986083706967 -0.070898788138403862 0.022899146019630879 -0.1483335446034989 -0.0089930212285582092 -0.027698501367132214
leaf_weight=774.6207696646452 38.921862825751305 8.7238941788673419 23.678134888410568 7.3661306053400031 83.138773933053017 11.448162615299223 27.657723486423492 91.730331391096115 70.142785340547562 53.308982148766518 28.437936201691628 873.55718103051186 152.93625965714455 346.3606384396553 14.231678277254103 118.39499618113041 18.720458224415779 28.337488383054733 16.214339450001717 11.559714630246161 113.24780616164207 4.8212424516677848 29.877923339605331 1580.4060841947794 13.102603390812872 26.480962470173836 96.487093597650528 10.502817124128343 7.4005125910043708 183.53620210289955
leaf_count=3138 164 38 106 32 351 50 117 419 288 243 122 3731 677 1505 60 508 79 119 66 49 487 20 124 6660 54 109 400 44 32 759
internal_value=0 0.0028286 0.0217758 0.0299315 0.00845007 0.000814788 -0.00860205 0.0540566 0.00151457 0.00629441 0.0048494 -0.00198845 0.0143462 0.00850093 0.0180124 -0.00559431 -0.0143668 -0.00347372 0.00383859 -0.0767432 -0.0125005 -0.0365854 -0.00887774 -0.00393997 0.0149895 -0.00654125 0.0339729 -0.0254224 -0.0907358 -0.019906
internal_weight=0 4090.73 265.303 245.019 129.611 122.245 110.796 115.408 3825.43 2038.81 1985.5 1154.35 831.151 678.215 478.987 132.627 199.228 160.306 924.471 20.2836 141.585 50.9135 34.6992 1786.62 206.213 96.6237 109.59 229.877 17.9033 211.974
internal_count=20551 17413 1162 1075 550 518 468 525 16251 8740 8497 4898 3599 2922 2073 568 849 685 3941 87 606 210 144 7511 851 397 454 957 76 881
is_linear=0
shrinkage=0.1


Tree=17
num_leaves=31
num_cat=0
split_feature=4 8 1 6 9 14 10 15 15 2 7 1 0 0 2 6 5 0 1 0 2 17 17 6 5 10 17 2 5 5
split_gain=16.024 9.46745 13.6213 13.3883 11.31 13.4383 10.8622 15.9954 10.0587 9.60633 8.64702 8.07375 7.25591 27.6269 14.7027 14.7769 12.8583 12.3248 11.7991 10.4591 14.6305 9.90244 9.64448 8.05624 11.9114 13.8299 10.634 8.99615 10.6755 8.31532
threshold=0.3000000000000001 0.49877929687500006 1610612744.5000002 0.47863769531250006 24.900000000000002 0.67004394531250011 45.300000000000004 7.2989868164062512 0.3560302734375001 2015.5000000000002 0.78393554687500011 1610612741.5000002 1610612758.5000002 1610612759.5000002 2012.5000000000002 0.43381347656250008 113.30000000000003 1610612757.5000002 1610612765.5000002 1610612763.5000002 2008.5000000000002 41.900000000000006 43.100000000000009 0.44487304687500007 98.90000000000002 46.100000000000009 39.500000000000007 2007.5000000000002 93.100000000000009 103.90000000000002
decision_type=8 10 2 10 10 8 10 10 8 2 8 2 2 2 2 10 10 2 2 2 2 10 10 10 10 10 8 2 10 10
left_child=-1 3 11 4 12 10 7 -7 9 -8 -6 -3 14 22 16 21 18 -17 -2 20 -15 -16 -14 -21 27 26 -26 -25 -29 -27
right_child=1 2 -4 -5 5 6 8 -9 -10 -11 -12 -13 13 19 15 17 -18 -19 -20 23 -22 -23 -24 24 25 29 -28 28 -30 -31
leaf_value=-0.013138119569095203 0.00020714418758409895 -0.026714038968524829 -0.0015122322369181896 0.012668238666875276 -0.14271048441418951 0.013810535159883511 0.051900977006504846 -0.062199298889916405 0.053730364290988535 -0.020476426690268102 0.025505195700750268 -0.096303049329896986 0.10257954159266579 -0.021029888901058388 -0.015304067775474346 -0.02247921921146992 -0.13831520084785359 -0.089544478640516623 0.067640212195264685 -0.038075472839694924 0.024858222944617411 0.039187250265634931 0.019226905014021758 0.096121228867565536 0.031961392119302399 -0.052652302444831461 -0.065534788310941977 -0.10686570120643449 0.035874805871153673 0.083180530834385563
leaf_weight=773.56395997107029 942.35810776054859 42.959053859114647 173.3891676068306 1174.1694106757641 8.7252971529960597 191.76120983064175 29.729480907320976 32.357430592179298 116.50205020606518 47.858408421278 4.7029852718114862 27.246520519256592 36.836641430854797 99.720825716853142 68.924348309636116 468.05529850721359 6.569200560450553 29.106283709406853 26.6827382594347 100.62892785668373 229.1119589060545 64.612414568662643 22.276256367564201 17.437251701951027 14.133591279387472 6.2454120367765453 53.664984300732613 6.5612826496362677 26.009552672505379 16.189419403672218
leaf_count=3138 3977 174 706 5175 37 816 132 138 505 201 20 111 166 419 283 1952 28 119 121 413 964 269 99 75 59 26 224 27 108 69
internal_value=0 0.00255823 -0.0165592 0.00377068 -0.000146902 0.0146725 0.0178342 0.00283651 0.0351524 0.00725654 -0.0837963 -0.0537213 -0.00300876 0.00609767 -0.00657362 -0.0184726 0.00111869 -0.0264055 0.00206393 -0.000654164 0.0109423 0.0110618 0.0711687 -0.0164855 -0.000993881 -0.0226899 -0.0452103 0.0381539 0.00712022 0.0453674
internal_weight=0 4084.53 243.595 3840.93 2666.76 431.637 418.209 224.119 194.09 77.5879 13.4283 70.2056 2235.12 628.816 1606.31 630.698 975.61 497.162 969.041 569.703 328.833 133.537 59.1129 240.87 140.241 90.2334 67.7986 50.0081 32.5708 22.4348
internal_count=20551 17413 991 16422 11247 1849 1792 954 838 333 57 285 9398 2649 6749 2623 4126 2071 4098 2384 1383 552 265 1001 588 378 283 210 135 95
is_linear=0
shrinkage=0.1


Tree=18
num_leaves=31
num_cat=0
split_feature=4 1 1 13 9 0 7 6 8 14 5 7 2 8 12 0 12 0 0 6 0 2 1 1 9 0 2 2 14 9
split_gain=13.0135 8.7846 17.0948 14.3368 9.36925 11.2693 11.3248 10.3176 9.20041 9.09877 8.31757 7.67298 7.61683 8.70904 12.0248 9.96679 7.77067 7.58132 15.2502 17.956 16.0485 13.4692 10.5007 11.7009 11.361 11.3065 10.7569 10.3407 11.3015 13.8807
threshold=0.3000000000000001 1610612737.5000002 1610612738.5000002 11.264404296875002 28.700000000000006 1610612742.5000002 0.78852539062500016 49.853125000000006 0.34219665527343751 0.74584960937500011 119.30000000000003 79.86875000000002 2015.5000000000002 0.37565917968750001 105.7 1610612758.5000002 102.7 1610612763.5000002 1610612758.5000002 0.52155761718750016 1610612759.5000002 2019.5000000000002 1610612741.5000002 1610612748.5000002 16.100000000000005 1610612749.5000002 2009.5000000000002 2008.5000000000002 0.73188476562500016 25.100000000000005
decision_type=8 2 2 10 10 2 10 10 10 10 10 10 2 10 10 2 10 2 2 10 2 2 2 2 8 2 2 2 8 8
left_child=-1 3 -3 -2 7 6 -6 17 -7 11 -8 -9 -10 -14 15 16 -15 18 22 20 21 -20 -4 24 -24 -25 -26 28 -22 -30
right_child=1 2 4 -5 5 8 10 9 12 -11 -12 -13 13 14 -16 -17 -18 -19 19 -21 27 -23 23 25 26 -27 -28 -29 29 -31
leaf_value=-0.01184077692607277 0.036570532725255643 -0.031817866320657154 0.018520358334572957 -0.078081957253248346 -0.10333890172770095 -0.057711303965599092 0.079423186446835534 -0.073036398201470773 0.083505373270827146 -0.10256048213558018 -0.079051559371589364 0.077974401639000504 0.087856927257843567 0.025147027132559827 0.079704860376765968 -0.10303080708826429 -0.089054619740155563 -0.012332665591387095 0.062550281842639624 -0.044274590600437501 -0.06650090563518056 -0.074728795867888206 -0.14010430639689672 0.0088337867706979878 0.0044944899650250399 -0.0082640533829254834 -0.021777065430314081 0.023158111449089792 -0.011795502000304527 0.076833478040947478
leaf_weight=772.54394927620888 128.81792667508125 148.74249278008938 279.40904800593853 11.9153496325016 12.532261028885843 9.6536621600389463 9.7960814982652646 6.3996784240007418 35.000173211097717 17.767262354493141 5.0034900009632102 7.0950088500976562 20.292333379387856 42.944597139954567 20.916373774409294 9.3849858194589597 6.9179946631193152 328.12430614233017 115.47686664760113 44.084915027022362 27.512446090579033 7.6187042295932761 6.9762986600399008 1045.1082136929035 250.96117709577084 613.98287311196327 411.25205565989017 337.53997838497162 94.532695397734642 21.733561024069786
leaf_count=3138 545 624 1176 50 55 41 44 26 166 72 22 29 89 187 93 40 31 1376 539 189 116 31 29 4533 1066 2591 1715 1442 399 97
internal_value=0 0.00231425 0.00143666 0.0268633 0.00274245 0.0255151 -0.0333885 0.00165633 0.0366097 -0.0555435 0.0258455 0.00635951 0.0433318 0.0293348 0.0145208 -0.00849137 0.00930256 0.00215522 0.00361515 0.0173384 0.0218323 0.0540537 0.000202364 -0.00199592 -0.0131582 0.00250636 -0.0118208 0.0135918 -0.00886639 0.00477184
internal_weight=0 4077.49 3936.76 140.733 3788.02 172.442 27.3318 3615.58 145.11 31.2619 14.7996 13.4947 135.456 100.456 80.164 59.2476 49.8626 3584.31 3256.19 648.499 604.414 123.096 2607.69 2328.28 669.19 1659.09 662.213 481.319 143.779 116.266
internal_count=20551 17413 16818 595 16194 768 121 15426 647 127 66 55 606 440 351 258 218 15299 13923 2813 2624 570 11110 9934 2810 7124 2781 2054 612 496
is_linear=0
shrinkage=0.1


Tree=19
num_leaves=31
num_cat=0
split_feature=1 1 1 2 1 2 2 1 1 5 14 2 1 6 1 2 2 1 1 2 9 14 17 13 1 0 7 16 16 5
split_gain=11.393 17.5934 22.6126 16.3541 12.8992 12.8561 19.6949 17.7124 17.2999 13.9513 12.3043 11.6709 13.781 13.3595 11.5475 25.2992 21.6467 11.4431 11.0559 10.9675 10.7913 10.7397 10.5439 10.017 9.7149 9.24778 9.20357 8.97886 8.64416 10.1026
threshold=1610612763.5000002 1610612758.5000002 1610612748.5000002 2016.5000000000002 1610612749.5000002 2007.5000000000002 2012.5000000000002 1610612765.5000002 1610612764.5000002 107.30000000000003 0.7828613281250002 2013.5000000000002 1610612750.5000002 0.47106933593750006 1610612759.5000002 2016.5000000000002 2008.5000000000002 1610612753.5000002 1610612737.5000002 2005.5000000000002 24.700000000000006 0.72404785156250007 34.900000000000006 11.264404296875002 1610612756.5000002 1610612763.5000002 0.70676269531250013 28.700000000000006 28.500000000000004 97.500000000000014
decision_type=2 2 2 2 2 2 2 2 2 10 10 2 2 8 2 2 2 2 2 2 10 10 8 10 2 2 10 8 8 8
left_child=1 2 18 11 26 7 -7 8 -2 10 -8 12 -4 -14 15 -3 21 -6 19 -1 25 -16 -22 -21 -19 28 -5 -24 -20 -30
right_child=5 14 3 4 17 6 9 -9 -10 -11 -12 -13 13 -15 16 -17 -18 24 20 23 22 -23 27 -25 -26 -27 -28 -29 29 -31
leaf_value=0.082981200091526208 0.013205457509849156 -0.059785874740742401 0.038123733919794629 -0.18566284081437084 0.018821812205637795 0.06087812230972061 -0.045374921204350119 0.056096741645988019 -0.075235147292568319 0.033310738974346638 0.019543105961850771 0.037189312026661522 -0.0041857551313261108 0.025110531310031787 -0.032849966971747947 0.026018333612440988 -0.02022447705290796 -0.030034279348541026 -0.0083105117417372355 0.017672046055488957 -0.087284635318133241 0.031380100168095192 0.0049555763378438889 -0.071227099776634509 0.01180253777466273 -0.037849432622218682 -0.039176161417986709 0.097466992612867301 0.024517188074969564 -0.097226356423868621
leaf_weight=23.22782438993454 40.4114830493927 131.14299806952477 162.44828675687313 4.7423121035099021 191.78929251432419 105.27290171384811 63.467771425843239 27.88987822830677 48.858702465891838 116.58754383027554 54.068620175123215 232.02873358130455 458.15939548611641 235.749426856637 31.379590183496475 46.563740074634552 453.1491711139679 145.60713814198971 1172.5912980884314 127.77569137513638 12.162317156791685 152.76867835223675 483.43100941181183 14.070597365498541 89.693612888455391 129.41641870141029 44.873623684048653 10.724060297012327 9.7437290996313077 22.686217725276947
leaf_count=101 175 538 711 20 807 470 266 128 207 507 224 1007 1937 1066 134 195 1900 607 4890 538 51 662 2070 58 376 532 189 48 41 96
internal_value=0 -0.00150413 0.00152163 0.0105303 -0.00491544 0.0150946 0.0249538 -0.0134663 -0.0351992 0.00880064 -0.0155116 0.0172955 0.0119053 0.0057674 -0.0147614 -0.037303 -0.00847583 0.000691257 -0.00550761 0.0192842 -0.00773087 0.020435 0.0046993 0.0088536 -0.0140866 -0.0124472 -0.0531774 0.00696324 -0.00971903 -0.0606479
internal_weight=0 4385.93 3570.92 1565.09 476.706 456.557 339.397 117.16 89.2702 234.124 117.536 1088.39 856.357 693.909 815.004 177.707 637.297 427.09 2005.83 165.074 1840.76 184.148 506.317 141.846 235.301 1334.44 49.6159 494.155 1205.02 32.4299
internal_count=20551 18574 15145 6720 1999 1977 1467 510 382 997 490 4721 3714 3003 3429 733 2696 1790 8425 697 7728 796 2169 596 983 5559 209 2118 5027 137
is_linear=0
shrinkage=0.1


Tree=20
num_leaves=31
num_cat=0
split_feature=4 17 12 10 1 2 2 1 1 1 1 17 1 2 2 16 2 1 1 13 10 1 1 14 15 14 1 3 0 5
split_gain=10.2381 7.03852 10.4454 8.7761 6.56636 14.8405 18.7642 13.7303 17.0718 11.4009 13.5885 10.3796 10.0047 20.5119 12.1741 9.86274 9.65432 11.2681 9.40188 9.86551 8.82491 8.73942 13.6859 8.7349 8.63282 8.27245 8.60149 8.99317 9.52591 8.22496
threshold=0.3000000000000001 48.100000000000009 110.90000000000002 43.100000000000009 1610612763.5000002 2007.5000000000002 2012.5000000000002 1610612765.5000002 1610612764.5000002 1610612758.5000002 1610612748.5000002 49.100000000000009 1610612759.5000002 2016.5000000000002 2010.5000000000002 21.900000000000002 2017.5000000000002 1610612749.5000002 1610612737.5000002 11.264404296875002 41.500000000000007 1610612738.5000002 1610612741.5000002 0.68620605468750007 9.3545654296875025 0.70747070312500016 1610612754.5000002 1.0000000180025095e-35 1610612748.5000002 109.7
decision_type=8 10 10 10 2 2 2 2 2 2 2 8 2 2 2 10 2 2 2 10 10 2 2 10 10 8 2 2 2 10
left_child=1 -1 3 -3 9 7 -7 8 -6 10 18 29 13 15 23 -11 -12 -18 19 -2 -19 -20 -23 -14 25 -22 27 28 -27 -8
right_child=4 2 -4 -5 5 6 11 -9 -10 12 16 -13 14 -15 -16 -17 17 20 21 -21 24 22 -24 -25 -26 26 -28 -29 -30 -31
leaf_value=-0.01263830836820197 0.030672888826914508 0.11100981423417444 -0.044893893304756828 -0.01568634219182426 0.01471978047455021 0.065056888308278743 -0.0049789294874279244 0.049453394582389926 -0.078854650431401441 -0.035173289826015516 0.015950550202618454 -0.1304533629216118 -0.06047634985487467 0.031028226382626659 -0.016620149086152444 -0.099012669744026116 -0.059970131399174779 -0.039167835592207066 -0.027659564270078187 -0.063770981368207538 0.053817330995602444 0.013007999414134778 -0.0086113178289646802 0.019746710096001888 0.0710549891796321 -0.03153186329751699 -0.026862063817231187 0.13848931989952132 0.033670293525428927 0.038418043277587577
leaf_weight=734.19895167648792 127.03580598533154 16.593805298209194 11.85402876138687 8.1538477241992933 34.8165133446455 87.387477681040764 106.1732189655304 23.442058533430099 44.309884279966354 81.559113755822182 991.62764437496662 5.1984559446573249 14.573872506618498 37.425123691558838 322.0331164598465 34.410621285438538 32.463423445820808 43.454152330756187 149.60033673048019 12.115246057510374 28.782099261879921 415.20380501449108 993.34623347222805 197.53032770752907 21.005640000104904 36.209805816411972 86.651627793908119 5.6673138290643683 58.781263440847397 74.19077143073082
leaf_count=2990 545 67 48 33 153 405 450 112 186 333 4372 23 61 158 1345 140 136 178 624 50 120 1752 4193 866 89 154 363 24 250 331
internal_value=0 -0.0105047 0.0322935 0.069266 0.00206548 0.0146634 0.0268497 -0.0177663 -0.0376808 0.000783246 0.00344356 0.00885674 -0.0108324 -0.0333424 -0.00436786 -0.0541158 0.0111175 -0.00419363 -0.00245506 0.0224501 0.00226043 -0.00467922 -0.00223851 0.0142345 0.0098532 0.00390397 -0.00376573 0.0161167 0.00881577 0.0128719
internal_weight=0 770.801 36.6017 24.7477 4064.99 375.518 272.95 102.568 79.1264 3689.48 3001.94 185.562 687.532 153.395 534.137 115.97 1304.64 313.015 1697.3 139.151 280.552 1558.15 1408.55 212.104 237.098 216.092 187.31 100.658 94.9911 180.364
internal_count=20551 3138 148 100 17413 1660 1209 451 339 15753 12850 804 2903 631 2272 473 5686 1314 7164 595 1178 6569 5945 927 1000 911 791 428 404 781
is_linear=0
shrinkage=0.1


Tree=21
num_leaves=31
num_cat=0
split_feature=9 10 0 8 11 11 8 6 7 8 1 1 2 12 1 8 2 10 12 0 13 15 14 5 7 9 7 8 15 1
split_gain=9.3966 9.49482 11.4028 11.1079 11.175 11.0939 9.26455 11.08 8.7403 8.80909 8.51704 15.1285 17.5515 15.0052 10.9468 9.35138 8.56628 9.741 9.98549 9.50892 8.26961 10.2927 7.94833 7.83215 7.91487 7.28102 7.20482 9.82622 9.52461 9.81254
threshold=24.900000000000002 43.500000000000007 1610612741.5000002 0.44748535156250008 0.90000000000000013 1.0000000180025095e-35 0.3141906738281251 0.50046386718750013 0.75541992187500007 0.29761657714843753 1610612748.5000002 1610612752.5000002 2017.5000000000002 90.100000000000009 1610612751.5000002 32.531250000000007 2005.5000000000002 41.900000000000006 102.90000000000002 1610612763.5000002 0.48083496093750006 0.3858154296875001 0.77426757812500002 88.90000000000002 0.81665039062500011 26.300000000000001 0.70900878906250009 0.40307617187500006 0.30899047851562506 1610612763.5000002
decision_type=10 10 2 10 10 10 10 8 10 10 2 2 2 8 2 10 2 10 10 2 10 8 10 10 10 10 8 10 10 2
left_child=10 6 5 4 -4 -3 7 8 9 -2 16 12 13 -12 15 22 17 -1 -19 -18 21 -5 -14 -21 -25 -10 27 -13 -28 -30
right_child=1 2 3 20 -6 -7 -8 -9 25 -11 11 26 14 -15 -16 -17 19 18 -20 23 -22 -23 -24 24 -26 -27 28 -29 29 -31
leaf_value=-0.012484721865433859 0.055888221897280703 0.12947296037271122 0.033579863456581448 -0.012175874772027506 -0.014402535980833389 -0.016346290272570018 0.0015551935296935159 0.092198936264124773 -0.14956908487789586 -0.10634518299297036 -0.07329189449894935 -0.025808943376110012 -0.11459667576386019 0.031166841173683176 0.042204573617673269 0.037024468645191121 -0.0088509127809356849 0.0063910503109251343 0.062748893514697285 -0.14866671382399452 -0.069080448320180024 0.10571824016660905 -0.032776756007114931 -0.021403878414502992 -0.094648821021166063 -0.026701896372791446 -0.018484685088446928 0.027534051003902188 -0.00086257636919197462 0.022149654870107848
leaf_weight=119.67444539070129 8.7039663791656476 5.4369570314884177 408.72538790106773 47.62844343483448 55.079362168908119 129.19929449260235 518.22237221896648 4.9449818581342688 14.16579543054104 5.4380786567926398 14.306183576583861 229.5845502614975 18.626180857419968 354.69403228163719 19.148253723978996 11.583107471466063 1118.5932617336512 87.744284704327583 48.992039412260056 6.1128979027271262 19.717841953039169 8.7687055021524412 32.746793657541275 97.391698181629181 17.387157648801804 7.3128442764282218 230.31395627558231 40.646611422300339 914.60318346321583 232.37300844490528
leaf_count=499 37 24 1818 204 240 560 2233 23 60 23 61 968 77 1544 80 47 4655 373 212 25 85 38 136 399 72 31 971 177 3869 1010
internal_value=0 0.00759286 0.0155786 0.0220711 0.0278817 -0.0104577 -0.00204736 -0.0480696 -0.0675421 -0.00649583 -0.00252294 0.00158673 0.0178126 0.027117 -0.024004 -0.0441415 -0.00828849 0.00834939 0.0265838 -0.0117303 -0.0133354 0.00615446 -0.062442 -0.0383733 -0.0324993 -0.107736 -0.00285604 -0.0177854 7.31769e-05 0.00379961
internal_weight=0 1233.34 674.556 539.92 463.805 134.636 558.788 40.5657 35.6207 14.142 3594.52 2098.63 451.105 369 82.1043 62.9561 1495.9 256.411 136.736 1239.49 76.115 56.3971 51.373 120.892 114.779 21.4786 1647.52 270.231 1377.29 1146.98
internal_count=20551 5376 2969 2385 2058 584 2407 174 151 60 15175 8940 1945 1605 340 260 6235 1084 585 5151 327 242 213 496 471 91 6995 1145 5850 4879
is_linear=0
shrinkage=0.1


Tree=22
num_leaves=31
num_cat=0
split_feature=8 6 1 15 9 14 12 10 15 8 12 1 15 16 10 0 0 0 2 0 2 9 6 5 2 1 6 0 17 6
split_gain=8.48061 11.5855 11.462 10.6622 10.085 9.21605 11.6326 9.35478 15.5817 14.1195 9.16612 8.67034 10.7422 9.63113 7.89584 7.84095 20.9115 13.0262 18.6613 10.7445 10.4766 10.8686 11.4715 11.3764 10.847 11.2296 10.3009 10.5596 12.0979 10.2534
threshold=0.49877929687500006 0.47863769531250006 1610612764.5000002 0.34183349609375008 24.900000000000002 0.66708984375000013 90.100000000000009 42.300000000000004 7.5223388671875009 0.36182861328125004 107.50000000000001 1610612744.5000002 0.36805419921875004 27.300000000000001 40.900000000000006 1610612758.5000002 1610612759.5000002 1610612749.5000002 2013.5000000000002 1610612752.5000002 2005.5000000000002 21.500000000000004 0.44919433593750008 92.90000000000002 2011.5000000000002 1610612761.5000002 0.43957519531250006 1610612756.5000002 39.900000000000006 0.44523925781250001
decision_type=10 10 2 10 10 8 8 10 10 10 10 2 10 10 10 2 2 2 2 2 2 10 10 10 2 2 10 2 10 8
left_child=1 4 3 10 15 -6 -7 8 9 -8 -2 12 -5 -13 -10 17 -17 -1 19 20 21 22 23 -19 25 -22 27 -20 -29 -18
right_child=2 -3 -4 11 5 6 7 -9 14 -11 -12 13 -14 -15 -16 16 29 18 26 -21 24 -23 -24 -25 -26 -27 -28 28 -30 -31
leaf_value=-0.00021457535429217432 -0.035435201103144999 0.0096357114222676357 0.059662703208592051 0.040611256181410801 -0.070036826760170812 0.069596229029145709 -0.045573339568853649 0.017417607772828116 -0.042542667728515844 0.03333257912569048 -0.14607782300952274 0.0022513246434730677 -0.06444961391634392 0.12203242503578432 -0.1974069984521763 0.061349575246488 -0.013973808774219599 -0.04341168111781734 -0.023440564125260886 0.0049705152924302068 -0.067333743781623753 0.06829053386880149 -0.13447845320148996 0.12409103150437151 0.0098165652207560881 0.012507890381755774 -0.04794667428950266 -0.06667775219609455 0.11648083346132737 0.010262322548792035
leaf_weight=1122.5311090946198 117.5735170096159 1195.4756147116423 19.217515483498573 12.822849392890928 13.523174077272413 34.511134773492813 41.21983990073204 337.67094968259335 6.7148575335741025 50.413569748401642 7.9968383461236945 128.97604924440384 40.37843169271946 7.0813135057687751 6.4591857641935349 59.546240493655205 310.50017155706882 11.605186402797704 110.68323148787022 367.89965064823627 92.155041143298149 22.15039598941803 7.1938945055007926 6.2322033196687689 37.687855750322342 21.77916993200779 216.65332740545273 5.1721205562353161 11.911590188741682 398.70708175003529
leaf_count=4737 482 5322 79 52 57 148 172 1464 28 214 33 527 166 29 27 278 1282 48 453 1539 377 94 30 26 155 90 889 21 49 1683
internal_value=0 0.00120368 -0.0153121 -0.0198886 -0.00185752 0.0113703 0.0136783 0.00931696 -0.0167819 -0.002162 -0.0424814 -0.00489862 -0.0391273 0.00848552 -0.118472 -0.00417282 0.00443045 -0.00742499 -0.0163084 -0.0051514 -0.0238827 0.0172694 -0.0278797 0.0151121 -0.0366884 -0.0520716 -0.034666 -0.0121461 0.0610293 -0.000348571
internal_weight=0 4488.4 334.047 314.829 3292.92 490.513 476.99 442.478 104.807 91.6334 125.57 189.259 53.2013 136.057 13.174 2802.41 768.753 2033.65 911.124 566.703 198.804 47.1817 25.0313 17.8374 151.622 113.934 344.42 127.767 17.0837 709.207
internal_count=20551 19183 1368 1289 13861 2110 2053 1905 441 386 515 774 218 556 55 11751 3243 8508 3771 2359 820 198 104 74 622 467 1412 523 70 2965
is_linear=0
shrinkage=0.1


Tree=23
num_leaves=31
num_cat=0
split_feature=0 0 2 0 0 0 17 9 10 6 12 1 6 0 16 16 10 1 10 12 14 0 14 10 8 10 9 9 2 2
split_gain=7.1922 27.1213 11.4871 12.4455 11.5371 9.30293 11.2284 9.04721 8.99895 10.706 10.7948 18.6133 8.8933 10.7031 8.64666 10.3709 9.62322 9.22166 8.54062 8.88554 9.20099 8.28512 10.0172 8.54101 8.3217 8.16997 8.0671 8.02177 8.00192 11.7985
threshold=1610612749.5000002 1610612753.5000002 2019.5000000000002 1610612758.5000002 1610612754.5000002 1610612741.5000002 36.300000000000004 28.900000000000002 48.500000000000007 0.46081542968750006 98.300000000000026 1610612761.5000002 49.15312500000001 1610612756.5000002 22.300000000000001 25.500000000000004 48.100000000000009 1610612764.5000002 40.900000000000006 101.90000000000002 17.952148437500004 1610612760.5000002 15.836816406250003 47.300000000000004 32.531250000000007 52.500000000000007 24.500000000000004 25.100000000000005 2005.5000000000002 2010.5000000000002
decision_type=2 2 2 2 2 2 10 10 10 10 10 2 10 2 10 10 8 2 10 10 10 2 10 10 8 10 10 8 2 2
left_child=5 14 27 4 -4 6 -1 25 28 10 -10 -12 13 -6 16 26 18 -17 -2 20 -20 22 -5 -23 -25 -7 -16 -3 -8 -30
right_child=1 2 3 21 12 7 8 -9 9 -11 11 -13 -14 -15 15 17 -18 -19 19 -21 -22 23 -24 24 -26 -27 -28 -29 29 -31
leaf_value=-0.056769719367945143 -0.052120901460363626 0.0023270756469234047 -0.054094111228974742 -0.088023889189965163 0.067335896431601067 0.0066143543368869934 -0.023955814733456093 0.041639788404032818 0.06514743082080332 -0.11589179313168177 -0.097084902892813685 0.10706724753118141 -0.068672418817849787 -0.0010654193569471784 -0.0057049106874651756 -0.052260239286045833 -0.082521821888187075 0.05925501954974443 -0.0099408692906614304 -0.050155820766385022 0.10566554796433013 -0.033437795955072062 0.028481136298493543 0.043108633155032446 -0.091973497289633305 0.084830116797099675 0.045800839644371337 0.020484365307976739 0.025846658940750424 -0.0037094823514016817
leaf_weight=38.397759839892387 92.46843695640564 1454.6216789186001 23.346822440624237 40.30782388150692 46.148923337459564 1209.8535719960928 105.40981890261173 82.767057612538338 11.844353944063185 14.139606460928915 19.566546529531482 5.7867787033319464 9.4079673290252668 45.361974954605103 157.42602042853832 65.787927195429802 33.537119090557098 8.3575493693351728 173.38655398786068 58.635546609759331 7.1691303253173819 105.65856835246086 9.0340639501810056 30.607172131538391 5.359052062034606 13.50368721783161 37.689579620957375 292.18895222246647 199.70146086812019 417.26641231775284
leaf_count=163 382 6176 95 165 195 5206 445 383 50 62 83 26 39 185 654 274 139 36 720 243 30 435 37 129 22 60 161 1309 882 1765
internal_value=0 -0.00336939 0.00219359 -0.0153761 0.00925562 0.00441689 -0.00398752 0.00964251 -0.00136805 -0.041823 -0.0136679 -0.0504881 0.0239111 0.0334293 -0.0214495 -0.00785391 -0.0314737 -0.0396904 -0.0263117 -0.0163342 -0.00535061 -0.0314044 -0.0666928 -0.01911 0.0229811 0.00747772 0.00424422 0.00536424 0.00150696 0.00585731
internal_weight=0 2696.5 2062.04 315.232 124.266 2118.24 812.113 1306.12 773.715 51.3373 37.1977 25.3533 100.919 91.5109 634.458 269.261 365.197 74.1455 331.66 239.191 180.556 190.967 49.3419 141.625 35.9662 1223.36 195.116 1746.81 722.378 616.968
internal_count=20551 11426 8787 1302 514 9125 3476 5649 3313 221 159 109 419 380 2639 1125 1514 310 1375 993 750 788 202 586 151 5266 815 7485 3092 2647
is_linear=0
shrinkage=0.1


Tree=24
num_leaves=31
num_cat=0
split_feature=1 1 1 2 2 6 16 13 2 15 2 2 1 1 5 14 16 17 1 5 8 17 2 7 1 8 15 14 2 15
split_gain=6.34368 11.9406 13.6356 10.0906 10.3119 9.95857 9.80526 9.28901 8.62542 9.15624 8.62424 13.2957 11.8125 10.7072 9.08987 9.42461 8.42379 8.58195 8.37941 9.74774 8.25576 8.24517 10.6185 8.03306 7.99086 7.98393 17.1681 10.5415 7.96876 9.05255
threshold=1610612763.5000002 1610612758.5000002 1610612748.5000002 2016.5000000000002 2013.5000000000002 0.42419433593750006 27.500000000000004 0.49807128906250003 2003.5000000000002 0.27283020019531257 2007.5000000000002 2012.5000000000002 1610612765.5000002 1610612764.5000002 107.30000000000003 0.7828613281250002 21.900000000000002 45.100000000000009 1610612741.5000002 87.300000000000026 0.27139892578125008 44.900000000000006 2005.5000000000002 0.79438476562500016 1610612749.5000002 0.40777587890625006 0.35538330078125008 0.70639648437500002 2008.5000000000002 7.4230224609375011
decision_type=2 2 2 2 2 8 10 8 2 10 2 2 2 2 10 10 8 10 2 10 10 8 2 10 2 8 10 10 2 10
left_child=1 2 8 4 5 16 24 25 9 -1 12 -12 13 -2 15 -13 17 -4 19 -10 -20 22 -14 -18 -5 27 -27 -3 -9 -30
right_child=10 7 3 6 -6 -7 -8 28 18 -11 11 14 21 -15 -16 -17 23 -19 20 -21 -22 -23 -24 -25 -26 26 -28 -29 29 -31
leaf_value=-0.038311262353349508 0.0092278045403236392 -0.048725544133037639 -0.030417066077772115 -0.044983668046955964 0.032655036109123937 0.012685670701006728 0.084975925154607557 -0.0012126758932762506 0.086252419879832024 0.040130420156789789 0.049900538611392931 -0.039116149529877201 0.075514218639817748 -0.060232536877669919 0.026491677059506558 0.017710258071895853 -0.010278714101848073 -0.14089352323136045 -0.050459391150683146 0.00090008796696151709 -0.0092248898930572011 0.12612922958372538 -0.079282062626565009 0.094284154262416445 -0.0016035445156188438 -0.017514915357080153 0.053419774522607481 -0.0063737256605509197 -0.082365445331311946 -0.026096802258377117
leaf_weight=18.396410837769508 39.924179941415787 68.217822760343552 47.54963630437851 47.306665048003197 228.39210212230682 745.75150738656521 12.146334797143934 57.759540677070618 13.61695086956024 77.86535407602787 100.77051229774952 63.803583905100822 10.111384093761449 49.967106983065605 114.15291424095631 53.790014803409576 35.070716977119446 8.251707971096037 50.869763776659966 770.63707758486271 1067.1522673070431 8.7239005267620069 7.8887543231248847 9.2944468408822996 414.73447129130363 74.388749584555626 63.028890982270241 424.36366912722588 44.41631992161274 80.249720796942711
leaf_count=80 175 285 196 198 1007 3300 52 249 56 342 470 266 48 207 507 224 145 34 210 3247 4490 42 38 39 1749 316 271 1789 186 333
internal_value=0 -0.00111159 0.0013931 0.00843688 0.0137999 0.00870919 -0.00371357 -0.0120471 -0.00406452 0.0251396 0.0113702 0.0195764 -0.0120291 -0.0293825 0.00639055 -0.0131224 -0.0208962 -0.0467539 -0.00554235 0.00238205 -0.0111011 0.0463424 0.00767308 0.0116271 -0.00604507 -0.00629311 0.0150205 -0.012239 -0.0319181 -0.0461443
internal_weight=0 4359.46 3547.04 1548.5 1074.31 845.918 474.187 812.425 1998.54 96.2618 449.132 332.517 116.615 89.8913 231.747 117.594 100.167 55.8013 1902.28 784.254 1118.02 26.724 18.0001 44.3652 462.041 629.999 137.418 492.581 182.426 124.666
internal_count=20551 18574 15145 6720 4721 3714 1999 3429 8425 422 1977 1467 510 382 997 490 414 230 8003 3303 4700 128 86 184 1947 2661 587 2074 768 519
is_linear=0
shrinkage=0.1


Tree=25
num_leaves=31
num_cat=0
split_feature=0 0 2 0 12 12 0 17 10 9 9 8 10 8 16 12 13 5 9 2 2 0 13 6 5 11 5 17 14 14
split_gain=5.8768 21.9551 8.91891 10.0177 10.0798 8.13226 7.74121 8.89331 7.47304 7.84866 7.45483 7.44534 10.4798 10.0068 9.12046 7.71767 13.2672 7.38651 7.28701 7.28359 7.99705 8.74817 10.6412 10.5391 11.544 8.7288 8.51723 7.73987 7.32506 7.25814
threshold=1610612749.5000002 1610612753.5000002 2019.5000000000002 1610612758.5000002 106.7 104.10000000000001 1610612741.5000002 36.300000000000004 43.70000000000001 24.700000000000006 28.900000000000002 0.4424560546875001 37.70000000000001 0.41296386718750006 13.700000000000001 114.10000000000001 11.462426757812501 118.7 27.500000000000004 2005.5000000000002 2010.5000000000002 1610612738.5000002 0.46159667968750001 0.44445800781250006 115.90000000000002 1.0000000180025095e-35 110.90000000000002 41.100000000000009 0.78022460937500016 0.80227050781250009
decision_type=2 2 2 2 10 10 2 10 8 10 10 10 10 10 8 8 10 10 10 2 2 2 10 10 8 10 8 10 10 8
left_child=6 -2 8 4 5 -4 7 -1 -3 -10 11 13 -13 14 -8 -16 -17 19 -14 -9 26 22 23 28 27 -23 -21 -25 -22 -15
right_child=1 2 3 -5 -6 -7 10 17 9 -11 -12 12 18 29 15 16 -18 -19 -20 20 21 25 -24 24 -26 -27 -28 -29 -30 -31
leaf_value=-0.050486484223708265 -0.019318475507528774 -0.00073694285550700376 0.011540934920416383 -0.027957169328169374 -0.050912322196253627 0.097491589051347749 -0.13357901611728099 -0.022931678804627317 0.0070657198854704303 0.032375152892508127 0.038046994164651793 -0.11001440370618187 0.0026874946328829434 0.064768835987005627 0.0047181485839894316 0.059024379216740711 -0.036695341006783219 -0.047061164870498905 -0.070357498873265922 0.024193152049820886 0.0079198691376838951 0.090346838224732065 0.040239061969520901 0.0037956626628833181 0.085071450887054659 -0.018319142730797322 -0.11476463687882477 -0.072031705891338949 0.12244893000273005 0.0049094392363287246
leaf_weight=38.642056047916412 633.80854086577892 1021.5117536187172 87.977631971240044 190.16217105090618 23.134745940566063 12.5824828594923 4.6149932444095603 110.32450965046883 564.3586683422327 156.50517700612545 81.567114964127541 10.874055564403532 99.635807231068611 53.669614404439926 921.81990942358971 62.504547938704491 18.846263542771339 33.770096465945244 15.826863706111906 200.51566955447197 16.870967820286754 7.6262100785970679 82.731738448143005 20.852246731519699 7.6977713108062735 240.78785528242588 4.5101717561483374 37.977335035800934 8.3475626707077009 32.536453053355217
leaf_count=163 2639 4358 366 788 96 52 19 466 2413 714 383 46 423 239 3970 275 81 143 68 892 71 33 355 89 33 1011 21 164 35 145
internal_value=0 -0.00304633 0.00196937 -0.0135482 0.00860332 0.0222954 0.00400101 -0.00367032 0.00476458 0.0125606 0.00877774 0.00682138 -0.0161637 0.00947575 0.00667854 0.00732378 0.0368493 -0.001327 -0.00732503 0.000765059 0.00492855 -0.00292929 0.0142325 -0.00921892 -0.0300863 -0.0149831 0.0211363 -0.0451546 0.04583 0.0421763
internal_weight=0 2690.04 2056.23 313.857 123.695 100.56 2112.55 810.654 1742.38 720.864 1301.9 1220.33 126.337 1093.99 1007.79 1003.17 81.3508 772.012 115.463 738.242 627.918 422.892 174.478 91.7459 66.5274 248.414 205.026 58.8296 25.2185 86.2061
internal_count=20551 11426 8787 1302 514 418 9125 3476 7485 3127 5649 5266 537 4729 4345 4326 356 3313 491 3170 2704 1791 747 392 286 1044 913 253 106 384
is_linear=0
shrinkage=0.1


Tree=26
num_leaves=31
num_cat=0
split_feature=1 1 1 6 2 2 1 1 2 12 16 16 6 12 16 16 8 8 17 17 0 12 1 2 2 14 9 2 1 10
split_gain=5.21946 9.69774 11.0892 8.49688 7.79511 8.50104 9.6088 10.6907 14.0257 9.40725 8.73566 8.01946 7.93758 8.12084 15.149 9.04231 8.2419 10.0884 7.84297 8.50998 8.23818 7.90409 7.66877 17.5025 13.9436 8.43776 7.78005 7.62983 9.46824 9.27803
threshold=1610612763.5000002 1610612758.5000002 1610612748.5000002 0.39843750000000006 2016.5000000000002 2013.5000000000002 1610612750.5000002 1610612757.5000002 2006.5000000000002 97.90000000000002 23.300000000000001 27.500000000000004 0.42419433593750006 99.300000000000026 17.900000000000002 22.100000000000005 0.26661987304687501 0.30640258789062508 45.500000000000007 36.500000000000007 1610612755.5000002 94.300000000000026 1610612759.5000002 2016.5000000000002 2008.5000000000002 0.67719726562500016 26.300000000000001 2005.5000000000002 1610612737.5000002 41.900000000000006
decision_type=2 2 2 8 2 2 2 2 2 8 10 10 8 10 10 10 10 10 10 10 2 10 2 2 2 8 10 2 2 10
left_child=1 2 27 -2 5 6 -4 12 9 -9 -11 -6 -8 15 -15 -14 -16 -18 19 -7 -20 -21 23 -3 25 -24 -25 28 -1 -30
right_child=3 22 4 -5 11 18 7 8 -10 10 -12 -13 13 14 16 -17 17 -19 20 21 -22 -23 24 26 -26 -27 -28 -29 29 -31
leaf_value=0.073654010290210292 0.10877908014188956 -0.047878067147702097 0.029960826279234232 0.0084179029637835457 -0.0051487947762584377 0.11223157662377221 -0.033484203004652796 0.086726634821167756 0.068206302831430837 -0.080206381086382464 0.055827697865671738 0.077784539311738204 0.0097138528206508774 -0.086648407141283232 0.062354665607438131 0.0721050579744206 -0.053354132892440835 0.0014894993272565528 0.034618121539451173 -0.03378392597936563 0.12529860251101274 0.024713939751615274 -0.10143828207113248 -0.0019554998652674886 -0.015121527946231013 0.021555359618810721 0.089386565704964449 -0.0062333870057229143 -0.014129505868324364 0.02296324318192304
leaf_weight=22.428025141358376 8.6016302704811078 131.17858104407787 158.04066102206707 437.65232336521149 461.5673391520977 9.591648340225218 70.866361364722252 6.919985547661784 51.772385165095329 18.341458141803745 6.3566863983869544 11.961860015988348 170.88269358873367 22.487862125039101 18.894553482532501 26.883572459220886 38.683518022298813 252.28331366181374 27.256529971957207 27.431660011410713 15.841158509254454 146.20254500210285 5.7601968348026267 33.150290593504906 452.57243509590626 176.13749743998051 12.974371075630186 1702.0033100694418 123.93444506824017 147.91640673577785
leaf_count=101 36 538 711 1941 1947 42 292 31 233 80 28 52 750 98 80 119 166 1126 121 120 72 652 24 139 1900 772 56 7162 518 644
internal_value=0 -0.00100365 0.00125776 0.0103524 0.00762674 0.012359 0.00773623 0.00260395 0.0361567 -0.0163221 -0.0451946 -0.00305381 -0.00205174 0.00215019 -0.00739741 0.0181951 -0.00164585 -0.00580186 0.0295657 0.0205374 0.067949 0.0154721 -0.0108612 -0.0292475 -0.00572318 0.0176605 0.023738 -0.00366272 0.0112051 0.00605298
internal_weight=0 4350.32 3538.55 446.254 1542.27 1068.74 842.413 684.372 83.3905 31.6181 24.6981 473.529 600.982 530.116 332.349 197.766 309.861 290.967 226.324 183.226 43.0977 173.634 811.773 177.303 634.47 181.898 46.1247 1996.28 294.279 271.851
internal_count=20551 18574 15145 1977 6720 4721 3714 3003 372 139 108 1999 2631 2339 1470 869 1372 1292 1007 814 193 772 3429 733 2696 796 195 8425 1263 1162
is_linear=0
shrinkage=0.1


Tree=27
num_leaves=31
num_cat=0
split_feature=4 17 15 16 9 8 5 13 6 14 14 9 5 13 15 0 10 15 10 9 0 2 10 6 12 9 17 14 4 9
split_gain=5.06822 6.41357 9.93893 9.4852 9.02815 8.87975 6.92851 10.5231 6.92034 6.6821 6.02354 5.61209 5.99953 5.02155 4.87376 4.76973 4.67215 6.67496 4.18868 4.14212 5.6911 6.39576 4.68556 4.04745 4.02082 3.99181 7.56356 9.73475 6.78572 6.09703
threshold=1.0000000180025095e-35 40.900000000000006 0.31500244140625006 22.900000000000002 22.100000000000005 0.29022216796875006 94.700000000000003 0.43349609375000003 0.4136474609375001 0.69938964843750007 0.77426757812500002 18.900000000000002 90.90000000000002 0.44313964843750003 0.41108398437500004 1610612749.5000002 53.100000000000009 0.38961181640625003 44.500000000000007 15.700000000000001 1610612751.5000002 2009.5000000000002 34.300000000000004 0.47277832031250006 101.10000000000001 18.100000000000005 46.70000000000001 0.69938964843750007 0.70000000000000007 18.700000000000006
decision_type=8 10 10 10 10 10 10 10 10 8 10 10 8 10 10 2 10 8 10 8 2 2 8 10 8 8 10 10 8 8
left_child=1 3 4 9 -3 -5 7 -4 -9 -1 18 12 -11 -12 -10 -7 19 -18 -8 20 -2 24 23 -21 -22 26 27 28 -24 -27
right_child=16 2 6 5 -6 15 10 8 14 11 13 -13 -14 -15 -16 -17 17 -19 -20 22 21 -23 25 -25 -26 29 -28 -29 -30 -31
leaf_value=0.047931660208205926 0.035423341947160049 -0.0073499436130117154 -0.10943876764054342 0.13630131753035224 0.12864873831918758 0.049203206985691 -0.1019396166097859 -0.021242887758827864 0.13397830089739834 -0.085205351923321668 0.069250048414982557 -0.099063086671016973 0.061199611386327325 -0.02619138689552844 0.027002529146179257 -0.07461204443630387 0.0046797289940983854 0.12720553550734778 -0.0093845112533515983 -0.0079302223909054528 -0.04735798966944741 0.00060369026815357057 -0.026821017721266036 0.093237383598438944 -0.15509420250044259 -0.021202437261037363 0.067365735412806202 0.014009960159113344 -0.16112646147373899 0.00050364062747014092
leaf_weight=4.7306119650602332 8.4570721238851529 9.4690587073564547 5.0380485951900509 4.8505131155252483 10.074624329805372 5.362982973456381 16.5313815176487 9.3073106706142443 9.4559977352619189 5.9835790693759892 6.5360920876264563 31.375175580382347 5.2591656148433694 35.207573994994164 7.7488335222005835 7.4105211943387985 11.991832673549654 7.0661974400281897 6.943333536386489 6.4862958192825344 6.5896622389554986 10.092620193958281 18.197509035468105 10.131592795252798 7.3034481555223474 133.57056596875191 23.011180460453033 210.82987025380135 4.7422701567411414 4150.9147157371044
leaf_count=20 36 40 21 20 42 22 69 39 39 25 27 132 22 146 32 31 53 32 29 27 27 42 75 44 30 560 98 884 20 17867
internal_value=0 -0.0163476 -0.00228968 -0.0415138 0.0627564 0.0211128 -0.0154266 0.0230447 0.0482203 -0.0648246 -0.0340375 -0.0773406 -0.0167196 -0.0112475 0.0857978 -0.0226279 0.000698425 0.050109 -0.0745637 0.000493283 -0.0351118 -0.0599816 0.000746718 0.0537496 -0.103994 0.000552764 0.0126633 0.00727869 -0.0545856 -0.000173055
internal_weight=0 181.285 116.312 64.9725 19.5437 17.624 96.7686 31.5502 26.5121 47.3485 65.2184 42.6179 11.2427 41.7437 17.2048 12.7735 4609.38 19.058 23.4747 4590.33 32.4428 23.9857 4557.88 16.6179 13.8931 4541.27 256.781 233.77 22.9398 4284.49
internal_count=20551 756 484 272 82 73 402 131 110 199 271 179 47 173 71 53 19795 85 98 19710 135 99 19575 71 57 19504 1077 979 95 18427
is_linear=0
shrinkage=0.1


Tree=28
num_leaves=31
num_cat=0
split_feature=0 0 7 16 1 11 7 17 5 14 2 17 10 15 9 6 0 10 2 2 0 17 5 6 13 1 6 7 15 5
split_gain=4.62455 17.6382 7.16353 8.92374 8.14824 7.86724 7.43589 10.3825 9.21151 7.50246 7.2213 8.14607 6.7004 9.58733 11.3747 6.71116 6.35296 8.13939 7.9923 10.436 9.9898 8.22023 8.08744 7.44163 8.59797 8.13402 7.2206 8.07879 7.12768 7.09711
threshold=1610612749.5000002 1610612753.5000002 0.88696289062500011 26.900000000000002 1610612744.5000002 0.90000000000000013 0.73361816406250013 48.900000000000006 120.7 0.67260742187500011 2006.5000000000002 35.900000000000006 48.100000000000009 0.35029296875000004 20.700000000000006 0.4700439453125001 1610612741.5000002 48.500000000000007 2006.5000000000002 2010.5000000000002 1610612738.5000002 39.100000000000009 110.90000000000002 0.46081542968750006 0.46359863281250008 1610612759.5000002 0.43110351562500004 0.74008789062500002 15.593554687500001 90.700000000000003
decision_type=2 2 10 10 2 10 8 8 8 10 2 10 8 10 10 8 2 10 2 2 2 10 10 10 8 2 10 8 10 8
left_child=16 12 6 4 -4 -6 7 8 9 -3 11 -11 -2 14 -14 -15 17 18 20 22 21 -1 -20 24 -19 -26 27 -21 -22 -18
right_child=1 2 3 -5 5 -7 -8 -9 -10 10 -12 -13 13 15 -16 -17 29 23 19 26 28 -23 -24 -25 25 -27 -28 -29 -30 -31
leaf_value=-0.13311124798243121 -0.014044759260987119 -0.069848321212244532 -0.063910276171548749 0.11301721543739721 -0.022799747413245735 0.051453916657670497 0.0072994010232320236 0.065821525805821915 0.1179148269334007 0.16458942714268257 -0.01526391112270982 0.0082529623562821088 0.029448908091531951 0.013814172295026021 -0.13710810420856365 -0.081942632470645038 -0.029318744065568926 0.027987739446536021 0.030193239046603038 -0.02711321880268347 -0.0071256561301449167 -0.035857542761826747 -0.097700461762779994 -0.10005135826952352 -0.10257141506301154 0.040687348746808322 -0.0089096520567647809 0.049889913311385377 0.12138345484252894 0.0093667206981241143
leaf_weight=10.608738645911215 575.80265383422375 20.544798314571381 38.285266399383545 4.8620401024818412 78.923684999346733 17.417753309011459 1373.3552663326263 19.10475118458271 5.6349438875913611 3.4263625591993323 366.44491642713547 122.24205558001995 5.3067940324544933 23.460249722003937 18.034886747598648 10.637915804982184 49.297660142183304 20.324548318982124 157.55229532718658 19.343585506081581 91.363225445151329 48.078781634569168 5.1045883148908606 15.163573935627936 14.775893062353136 5.4161252975463858 370.53022556006908 46.085111990571022 4.5299862623214713 1246.8503600656986
leaf_count=44 2400 86 161 20 327 72 5909 82 26 16 1555 533 22 98 74 45 205 88 712 81 391 201 23 65 62 24 1572 193 20 5444
internal_value=0 -0.00270567 0.00180001 -0.0200773 -0.024884 -0.00937529 0.0033971 -0.00657549 -0.00924411 -0.0106418 -0.00817003 0.0125155 -0.0172937 -0.049862 -0.0992409 -0.01606 0.00355552 -0.00339865 -0.000671237 0.00456338 -0.0209424 -0.0534378 0.0261796 -0.0402929 -0.0179279 -0.064145 -0.00350166 0.0271244 -0.0010549 0.00789536
